<?xml version="1.0"?>
<opencv_storage>
<cascade>
  <stageType>BOOST</stageType>
  <featureType>HAAR</featureType>
  <height>20</height>
  <width>20</width>
  <stageParams>
    <boostType>GAB</boostType>
    <minHitRate>9.9000000953674316e-01</minHitRate>
    <maxFalseAlarm>4.0000000596046448e-01</maxFalseAlarm>
    <weightTrimRate>9.4999998807907104e-01</weightTrimRate>
    <maxDepth>1</maxDepth>
    <maxWeakCount>100</maxWeakCount></stageParams>
  <featureParams>
    <maxCatCount>0</maxCatCount>
    <featSize>1</featSize>
    <mode>ALL</mode></featureParams>
  <stageNum>17</stageNum>
  <stages>
    <!-- stage 0 -->
    <_>
      <maxWeakCount>4</maxWeakCount>
      <stageThreshold>-1.8080309629440308e+00</stageThreshold>
      <weakClassifiers>
        <_>
          <internalNodes>
            0 -1 12 3.6329177021980286e-01</internalNodes>
          <leafValues>
            -9.5652174949645996e-01 8.0769228935241699e-01</leafValues></_>
        <_>
          <internalNodes>
            0 -1 30 3.0281251668930054e-01</internalNodes>
          <leafValues>
            -9.0222603082656860e-01 4.3918198347091675e-01</leafValues></_>
        <_>
          <internalNodes>
            0 -1 4 2.4751512706279755e-01</internalNodes>
          <leafValues>
            -4.7619453072547913e-01 8.0459928512573242e-01</leafValues></_>
        <_>
          <internalNodes>
            0 -1 104 4.7496519982814789e-02</internalNodes>
          <leafValues>
            -6.1626487970352173e-01 5.2691131830215454e-01</leafValues></_></weakClassifiers></_>
    <!-- stage 1 -->
    <_>
      <maxWeakCount>5</maxWeakCount>
      <stageThreshold>-1.2078899145126343e+00</stageThreshold>
      <weakClassifiers>
        <_>
          <internalNodes>
            0 -1 11 1.1653574705123901e+00</internalNodes>
          <leafValues>
            -8.9329683780670166e-01 9.2694061994552612e-01</leafValues></_>
        <_>
          <internalNodes>
            0 -1 105 1.9351527094841003e-01</internalNodes>
          <leafValues>
            -6.2816929817199707e-01 7.1429008245468140e-01</leafValues></_>
        <_>
          <internalNodes>
            0 -1 96 -1.7689306288957596e-02</internalNodes>
          <leafValues>
            8.5992610454559326e-01 -4.5224303007125854e-01</leafValues></_>
        <_>
          <internalNodes>
            0 -1 77 4.3057329952716827e-02</internalNodes>
          <leafValues>
            -7.7141541242599487e-01 4.4553402066230774e-01</leafValues></_>
        <_>
          <internalNodes>
            0 -1 52 1.2395746307447553e-03</internalNodes>
          <leafValues>
            3.2028529047966003e-01 -8.8905632495880127e-01</leafValues></_></weakClassifiers></_>
    <!-- stage 2 -->
    <_>
      <maxWeakCount>6</maxWeakCount>
      <stageThreshold>-1.2556983232498169e+00</stageThreshold>
      <weakClassifiers>
        <_>
          <internalNodes>
            0 -1 15 3.9309406280517578e-01</internalNodes>
          <leafValues>
            -8.9586526155471802e-01 4.5454546809196472e-01</leafValues></_>
        <_>
          <internalNodes>
            0 -1 42 2.3602607846260071e-01</internalNodes>
          <leafValues>
            -5.2317738533020020e-01 5.2521342039108276e-01</leafValues></_>
        <_>
          <internalNodes>
            0 -1 22 -7.9471543431282043e-03</internalNodes>
          <leafValues>
            -8.0861926078796387e-01 2.2196222841739655e-01</leafValues></_>
        <_>
          <internalNodes>
            0 -1 17 3.5533173941075802e-03</internalNodes>
          <leafValues>
            -5.5594426393508911e-01 3.3070150017738342e-01</leafValues></_>
        <_>
          <internalNodes>
            0 -1 125 -4.7391850966960192e-04</internalNodes>
          <leafValues>
            -8.1353574991226196e-01 2.0908561348915100e-01</leafValues></_>
        <_>
          <internalNodes>
            0 -1 84 -1.2236087059136480e-04</internalNodes>
          <leafValues>
            2.8824073076248169e-01 -5.6011968851089478e-01</leafValues></_></weakClassifiers></_>
    <!-- stage 3 -->
    <_>
      <maxWeakCount>7</maxWeakCount>
      <stageThreshold>-1.1529171466827393e+00</stageThreshold>
      <weakClassifiers>
        <_>
          <internalNodes>
            0 -1 21 2.5391304492950439e-01</internalNodes>
          <leafValues>
            -7.0801031589508057e-01 5.5681818723678589e-01</leafValues></_>
        <_>
          <internalNodes>
            0 -1 61 -6.3070803880691528e-02</internalNodes>
          <leafValues>
            3.5109823942184448e-01 -5.2290189266204834e-01</leafValues></_>
        <_>
          <internalNodes>
            0 -1 95 -8.6351856589317322e-03</internalNodes>
          <leafValues>
            3.6146977543830872e-01 -6.0836392641067505e-01</leafValues></_>
        <_>
          <internalNodes>
            0 -1 32 1.2402659049257636e-03</internalNodes>
          <leafValues>
            1.6604895889759064e-01 -8.7356871366500854e-01</leafValues></_>
        <_>
          <internalNodes>
            0 -1 85 1.0288037359714508e-02</internalNodes>
          <leafValues>
            -1.9044531881809235e-01 7.9270309209823608e-01</leafValues></_>
        <_>
          <internalNodes>
            0 -1 97 4.5310430228710175e-02</internalNodes>
          <leafValues>
            -4.1216075420379639e-01 3.6221164464950562e-01</leafValues></_>
        <_>
          <internalNodes>
            0 -1 8 1.7382500227540731e-03</internalNodes>
          <leafValues>
            -4.7081303596496582e-01 2.4891602993011475e-01</leafValues></_></weakClassifiers></_>
    <!-- stage 4 -->
    <_>
      <maxWeakCount>7</maxWeakCount>
      <stageThreshold>-1.4197571277618408e+00</stageThreshold>
      <weakClassifiers>
        <_>
          <internalNodes>
            0 -1 33 1.3154277801513672e+00</internalNodes>
          <leafValues>
            -7.3868048191070557e-01 6.8361580371856689e-01</leafValues></_>
        <_>
          <internalNodes>
            0 -1 5 1.2803441286087036e-01</internalNodes>
          <leafValues>
            -4.2426943778991699e-01 4.8260974884033203e-01</leafValues></_>
        <_>
          <internalNodes>
            0 -1 110 -1.4176939148455858e-03</internalNodes>
          <leafValues>
            4.4295927882194519e-01 -3.5708892345428467e-01</leafValues></_>
        <_>
          <internalNodes>
            0 -1 9 1.0026413947343826e-02</internalNodes>
          <leafValues>
            1.8159109354019165e-01 -7.8720748424530029e-01</leafValues></_>
        <_>
          <internalNodes>
            0 -1 74 -2.5717194657772779e-03</internalNodes>
          <leafValues>
            4.0953475236892700e-01 -3.9603582024574280e-01</leafValues></_>
        <_>
          <internalNodes>
            0 -1 68 -7.0221491158008575e-02</internalNodes>
          <leafValues>
            8.6844199895858765e-01 -1.7481282353401184e-01</leafValues></_>
        <_>
          <internalNodes>
            0 -1 1 1.7588283121585846e-01</internalNodes>
          <leafValues>
            -5.5371558666229248e-01 3.6487275362014771e-01</leafValues></_></weakClassifiers></_>
    <!-- stage 5 -->
    <_>
      <maxWeakCount>6</maxWeakCount>
      <stageThreshold>-1.2410392761230469e+00</stageThreshold>
      <weakClassifiers>
        <_>
          <internalNodes>
            0 -1 11 1.4155418872833252e+00</internalNodes>
          <leafValues>
            -8.2801663875579834e-01 6.4192140102386475e-01</leafValues></_>
        <_>
          <internalNodes>
            0 -1 71 -3.0494229868054390e-03</internalNodes>
          <leafValues>
            4.8006495833396912e-01 -5.0672191381454468e-01</leafValues></_>
        <_>
          <internalNodes>
            0 -1 45 1.4373981952667236e-01</internalNodes>
          <leafValues>
            -4.8929104208946228e-01 4.3995150923728943e-01</leafValues></_>
        <_>
          <internalNodes>
            0 -1 69 -7.0730363950133324e-03</internalNodes>
          <leafValues>
            4.4532281160354614e-01 -4.4420161843299866e-01</leafValues></_>
        <_>
          <internalNodes>
            0 -1 82 -6.7663818597793579e-02</internalNodes>
          <leafValues>
            7.8601872920989990e-01 -2.4751164019107819e-01</leafValues></_>
        <_>
          <internalNodes>
            0 -1 23 -4.5285848900675774e-03</internalNodes>
          <leafValues>
            3.8517919182777405e-01 -5.8223116397857666e-01</leafValues></_></weakClassifiers></_>
    <!-- stage 6 -->
    <_>
      <maxWeakCount>6</maxWeakCount>
      <stageThreshold>-1.1222146749496460e+00</stageThreshold>
      <weakClassifiers>
        <_>
          <internalNodes>
            0 -1 43 4.6956574916839600e-01</internalNodes>
          <leafValues>
            -7.6630437374114990e-01 5.3271025419235229e-01</leafValues></_>
        <_>
          <internalNodes>
            0 -1 59 -1.6327237244695425e-03</internalNodes>
          <leafValues>
            5.0884222984313965e-01 -3.6657190322875977e-01</leafValues></_>
        <_>
          <internalNodes>
            0 -1 19 2.7562829852104187e-01</internalNodes>
          <leafValues>
            -5.4319143295288086e-01 3.2553604245185852e-01</leafValues></_>
        <_>
          <internalNodes>
            0 -1 6 -1.6180928796529770e-03</internalNodes>
          <leafValues>
            -8.6727070808410645e-01 1.7303226888179779e-01</leafValues></_>
        <_>
          <internalNodes>
            0 -1 50 -9.0638874098658562e-04</internalNodes>
          <leafValues>
            4.2136421799659729e-01 -3.3291095495223999e-01</leafValues></_>
        <_>
          <internalNodes>
            0 -1 117 4.3360786512494087e-03</internalNodes>
          <leafValues>
            1.3103207945823669e-01 -9.8704886436462402e-01</leafValues></_></weakClassifiers></_>
    <!-- stage 7 -->
    <_>
      <maxWeakCount>8</maxWeakCount>
      <stageThreshold>-1.3525331020355225e+00</stageThreshold>
      <weakClassifiers>
        <_>
          <internalNodes>
            0 -1 16 4.2604932188987732e-01</internalNodes>
          <leafValues>
            -6.1640530824661255e-01 5.0413221120834351e-01</leafValues></_>
        <_>
          <internalNodes>
            0 -1 53 -8.9118070900440216e-03</internalNodes>
          <leafValues>
            5.3184312582015991e-01 -3.4152454137802124e-01</leafValues></_>
        <_>
          <internalNodes>
            0 -1 76 -4.2263716459274292e-03</internalNodes>
          <leafValues>
            4.4463577866554260e-01 -3.3490294218063354e-01</leafValues></_>
        <_>
          <internalNodes>
            0 -1 102 -1.6913223080337048e-03</internalNodes>
          <leafValues>
            2.9239061474800110e-01 -5.1761794090270996e-01</leafValues></_>
        <_>
          <internalNodes>
            0 -1 121 9.3995174393057823e-03</internalNodes>
          <leafValues>
            -3.8032341003417969e-01 3.8472121953964233e-01</leafValues></_>
        <_>
          <internalNodes>
            0 -1 29 6.5769045613706112e-04</internalNodes>
          <leafValues>
            -2.9717662930488586e-01 4.6185517311096191e-01</leafValues></_>
        <_>
          <internalNodes>
            0 -1 109 -3.0655176378786564e-03</internalNodes>
          <leafValues>
            4.1597366333007812e-01 -2.8479298949241638e-01</leafValues></_>
        <_>
          <internalNodes>
            0 -1 106 -2.5558331981301308e-02</internalNodes>
          <leafValues>
            6.5516597032546997e-01 -2.1125452220439911e-01</leafValues></_></weakClassifiers></_>
    <!-- stage 8 -->
    <_>
      <maxWeakCount>10</maxWeakCount>
      <stageThreshold>-1.1323142051696777e+00</stageThreshold>
      <weakClassifiers>
        <_>
          <internalNodes>
            0 -1 11 1.6104731559753418e+00</internalNodes>
          <leafValues>
            -7.2395128011703491e-01 4.0284359455108643e-01</leafValues></_>
        <_>
          <internalNodes>
            0 -1 80 2.7085575275123119e-03</internalNodes>
          <leafValues>
            2.0990598946809769e-02 -8.4772986173629761e-01</leafValues></_>
        <_>
          <internalNodes>
            0 -1 115 -2.4950451916083694e-04</internalNodes>
          <leafValues>
            4.0985202789306641e-01 -3.1012511253356934e-01</leafValues></_>
        <_>
          <internalNodes>
            0 -1 93 -2.1250406280159950e-04</internalNodes>
          <leafValues>
            2.6716175675392151e-01 -5.4303598403930664e-01</leafValues></_>
        <_>
          <internalNodes>
            0 -1 118 -2.4901537108235061e-04</internalNodes>
          <leafValues>
            -8.3297240734100342e-01 1.2951244413852692e-01</leafValues></_>
        <_>
          <internalNodes>
            0 -1 66 -2.0627820491790771e-01</internalNodes>
          <leafValues>
            -6.5798556804656982e-01 1.9162204861640930e-01</leafValues></_>
        <_>
          <internalNodes>
            0 -1 111 -2.0618330745492131e-04</internalNodes>
          <leafValues>
            -4.5673403143882751e-01 2.3416581749916077e-01</leafValues></_>
        <_>
          <internalNodes>
            0 -1 39 -3.0433088541030884e-03</internalNodes>
          <leafValues>
            -8.4341287612915039e-01 1.1845955252647400e-01</leafValues></_>
        <_>
          <internalNodes>
            0 -1 38 -5.2338764071464539e-02</internalNodes>
          <leafValues>
            4.8195800185203552e-01 -2.8207939863204956e-01</leafValues></_>
        <_>
          <internalNodes>
            0 -1 86 -8.2413032650947571e-03</internalNodes>
          <leafValues>
            2.2290924191474915e-01 -5.3556287288665771e-01</leafValues></_></weakClassifiers></_>
    <!-- stage 9 -->
    <_>
      <maxWeakCount>9</maxWeakCount>
      <stageThreshold>-1.3049678802490234e+00</stageThreshold>
      <weakClassifiers>
        <_>
          <internalNodes>
            0 -1 2 1.2144086360931396e+00</internalNodes>
          <leafValues>
            -6.8093383312225342e-01 4.1899442672729492e-01</leafValues></_>
        <_>
          <internalNodes>
            0 -1 78 -4.3933731503784657e-03</internalNodes>
          <leafValues>
            5.5678528547286987e-01 -3.5745319724082947e-01</leafValues></_>
        <_>
          <internalNodes>
            0 -1 88 -3.1409197254106402e-04</internalNodes>
          <leafValues>
            4.9487060308456421e-01 -2.9233938455581665e-01</leafValues></_>
        <_>
          <internalNodes>
            0 -1 67 1.3363781571388245e-01</internalNodes>
          <leafValues>
            -2.8428477048873901e-01 4.9878016114234924e-01</leafValues></_>
        <_>
          <internalNodes>
            0 -1 3 2.3690232634544373e-01</internalNodes>
          <leafValues>
            2.2043748199939728e-01 -6.9159120321273804e-01</leafValues></_>
        <_>
          <internalNodes>
            0 -1 58 2.7862429618835449e-01</internalNodes>
          <leafValues>
            2.0527200400829315e-01 -7.8667360544204712e-01</leafValues></_>
        <_>
          <internalNodes>
            0 -1 70 5.5180368945002556e-03</internalNodes>
          <leafValues>
            8.3133593201637268e-02 -9.1211277246475220e-01</leafValues></_>
        <_>
          <internalNodes>
            0 -1 46 -3.2380465418100357e-03</internalNodes>
          <leafValues>
            2.8017565608024597e-01 -4.7558051347732544e-01</leafValues></_>
        <_>
          <internalNodes>
            0 -1 40 -1.8044517491944134e-04</internalNodes>
          <leafValues>
            2.7678072452545166e-01 -4.5956972241401672e-01</leafValues></_></weakClassifiers></_>
    <!-- stage 10 -->
    <_>
      <maxWeakCount>5</maxWeakCount>
      <stageThreshold>-9.9447160959243774e-01</stageThreshold>
      <weakClassifiers>
        <_>
          <internalNodes>
            0 -1 73 1.2998874485492706e-01</internalNodes>
          <leafValues>
            -8.0300498008728027e-01 8.8319085538387299e-02</leafValues></_>
        <_>
          <internalNodes>
            0 -1 122 -4.2457220843061805e-04</internalNodes>
          <leafValues>
            5.9168958663940430e-01 -3.5382393002510071e-01</leafValues></_>
        <_>
          <internalNodes>
            0 -1 72 -1.8467547371983528e-02</internalNodes>
          <leafValues>
            -8.2126796245574951e-01 1.8506895005702972e-01</leafValues></_>
        <_>
          <internalNodes>
            0 -1 44 -5.8218622580170631e-03</internalNodes>
          <leafValues>
            6.7875283956527710e-01 -2.6474386453628540e-01</leafValues></_>
        <_>
          <internalNodes>
            0 -1 123 -6.4316093921661377e-03</internalNodes>
          <leafValues>
            -9.0688604116439819e-01 2.4203225970268250e-01</leafValues></_></weakClassifiers></_>
    <!-- stage 11 -->
    <_>
      <maxWeakCount>9</maxWeakCount>
      <stageThreshold>-1.3423252105712891e+00</stageThreshold>
      <weakClassifiers>
        <_>
          <internalNodes>
            0 -1 101 -2.7068749070167542e-02</internalNodes>
          <leafValues>
            4.3956044316291809e-01 -6.9010418653488159e-01</leafValues></_>
        <_>
          <internalNodes>
            0 -1 20 3.1635558116249740e-04</internalNodes>
          <leafValues>
            -5.7341557741165161e-01 3.6167156696319580e-01</leafValues></_>
        <_>
          <internalNodes>
            0 -1 103 1.0986113193212077e-04</internalNodes>
          <leafValues>
            2.7757567167282104e-01 -5.5665969848632812e-01</leafValues></_>
        <_>
          <internalNodes>
            0 -1 65 -2.9278558213263750e-03</internalNodes>
          <leafValues>
            7.0710909366607666e-01 -2.3372037708759308e-01</leafValues></_>
        <_>
          <internalNodes>
            0 -1 41 4.9451189115643501e-03</internalNodes>
          <leafValues>
            -2.6506027579307556e-01 6.0212594270706177e-01</leafValues></_>
        <_>
          <internalNodes>
            0 -1 75 -7.2204996831715107e-04</internalNodes>
          <leafValues>
            5.6811916828155518e-01 -2.6853063702583313e-01</leafValues></_>
        <_>
          <internalNodes>
            0 -1 100 3.9527728222310543e-03</internalNodes>
          <leafValues>
            3.5430532693862915e-01 -4.5521059632301331e-01</leafValues></_>
        <_>
          <internalNodes>
            0 -1 94 -6.2668351456522942e-03</internalNodes>
          <leafValues>
            6.3860434293746948e-01 -2.1941439807415009e-01</leafValues></_>
        <_>
          <internalNodes>
            0 -1 79 -2.1466773748397827e-01</internalNodes>
          <leafValues>
            -7.5837916135787964e-01 2.4308840930461884e-01</leafValues></_></weakClassifiers></_>
    <!-- stage 12 -->
    <_>
      <maxWeakCount>6</maxWeakCount>
      <stageThreshold>-1.2993493080139160e+00</stageThreshold>
      <weakClassifiers>
        <_>
          <internalNodes>
            0 -1 60 1.9752040505409241e-01</internalNodes>
          <leafValues>
            -6.4356434345245361e-01 4.9295774102210999e-01</leafValues></_>
        <_>
          <internalNodes>
            0 -1 28 1.3734897947870195e-04</internalNodes>
          <leafValues>
            -4.9400764703750610e-01 5.1637148857116699e-01</leafValues></_>
        <_>
          <internalNodes>
            0 -1 26 6.5732724033296108e-04</internalNodes>
          <leafValues>
            1.9406051933765411e-01 -9.1895365715026855e-01</leafValues></_>
        <_>
          <internalNodes>
            0 -1 92 -3.3429465256631374e-03</internalNodes>
          <leafValues>
            2.6840943098068237e-01 -7.1239149570465088e-01</leafValues></_>
        <_>
          <internalNodes>
            0 -1 62 -3.2869614660739899e-03</internalNodes>
          <leafValues>
            5.5293250083923340e-01 -3.2252162694931030e-01</leafValues></_>
        <_>
          <internalNodes>
            0 -1 7 2.9115374200046062e-03</internalNodes>
          <leafValues>
            -2.9177108407020569e-01 6.7907530069351196e-01</leafValues></_></weakClassifiers></_>
    <!-- stage 13 -->
    <_>
      <maxWeakCount>11</maxWeakCount>
      <stageThreshold>-9.5491057634353638e-01</stageThreshold>
      <weakClassifiers>
        <_>
          <internalNodes>
            0 -1 98 -1.5397777780890465e-02</internalNodes>
          <leafValues>
            5.0769233703613281e-01 -5.4576271772384644e-01</leafValues></_>
        <_>
          <internalNodes>
            0 -1 56 -5.1575088873505592e-03</internalNodes>
          <leafValues>
            5.2308785915374756e-01 -2.7664154767990112e-01</leafValues></_>
        <_>
          <internalNodes>
            0 -1 25 1.8567701335996389e-03</internalNodes>
          <leafValues>
            -4.5412188768386841e-01 2.4224276840686798e-01</leafValues></_>
        <_>
          <internalNodes>
            0 -1 34 -1.9422742724418640e-01</internalNodes>
          <leafValues>
            3.4938842058181763e-01 -3.2748553156852722e-01</leafValues></_>
        <_>
          <internalNodes>
            0 -1 64 -1.7295333743095398e-01</internalNodes>
          <leafValues>
            8.2734513282775879e-01 -1.1276701092720032e-01</leafValues></_>
        <_>
          <internalNodes>
            0 -1 54 4.0320581756532192e-03</internalNodes>
          <leafValues>
            -1.4305549860000610e-01 5.3986448049545288e-01</leafValues></_>
        <_>
          <internalNodes>
            0 -1 24 1.1379003990441561e-03</internalNodes>
          <leafValues>
            1.3240955770015717e-01 -9.0828669071197510e-01</leafValues></_>
        <_>
          <internalNodes>
            0 -1 47 -2.4190084077417850e-03</internalNodes>
          <leafValues>
            2.1625176072120667e-01 -3.9378982782363892e-01</leafValues></_>
        <_>
          <internalNodes>
            0 -1 99 -1.4545432291924953e-02</internalNodes>
          <leafValues>
            -8.2170325517654419e-01 1.1941026896238327e-01</leafValues></_>
        <_>
          <internalNodes>
            0 -1 120 -7.9852750059217215e-04</internalNodes>
          <leafValues>
            2.6837694644927979e-01 -3.5607481002807617e-01</leafValues></_>
        <_>
          <internalNodes>
            0 -1 83 -4.4453721493482590e-03</internalNodes>
          <leafValues>
            -8.3397752046585083e-01 1.1605283617973328e-01</leafValues></_></weakClassifiers></_>
    <!-- stage 14 -->
    <_>
      <maxWeakCount>12</maxWeakCount>
      <stageThreshold>-1.1697328090667725e+00</stageThreshold>
      <weakClassifiers>
        <_>
          <internalNodes>
            0 -1 89 6.3965648412704468e-02</internalNodes>
          <leafValues>
            -7.9852581024169922e-01 -2.3020258545875549e-01</leafValues></_>
        <_>
          <internalNodes>
            0 -1 0 5.8569270186126232e-04</internalNodes>
          <leafValues>
            8.6517103016376495e-02 -6.3980221748352051e-01</leafValues></_>
        <_>
          <internalNodes>
            0 -1 13 1.3680318370461464e-02</internalNodes>
          <leafValues>
            2.6589006185531616e-01 -4.1088485717773438e-01</leafValues></_>
        <_>
          <internalNodes>
            0 -1 14 -9.1685336083173752e-03</internalNodes>
          <leafValues>
            2.0221491158008575e-01 -4.5546895265579224e-01</leafValues></_>
        <_>
          <internalNodes>
            0 -1 119 -8.4542796015739441e-02</internalNodes>
          <leafValues>
            -8.9947921037673950e-01 1.1191555112600327e-01</leafValues></_>
        <_>
          <internalNodes>
            0 -1 113 -9.2564377700909972e-04</internalNodes>
          <leafValues>
            -6.2241190671920776e-01 1.3978204131126404e-01</leafValues></_>
        <_>
          <internalNodes>
            0 -1 51 -5.0284003373235464e-04</internalNodes>
          <leafValues>
            -7.9824888706207275e-01 1.1278592795133591e-01</leafValues></_>
        <_>
          <internalNodes>
            0 -1 48 -3.7809205241501331e-03</internalNodes>
          <leafValues>
            -7.3538911342620850e-01 1.2509091198444366e-01</leafValues></_>
        <_>
          <internalNodes>
            0 -1 124 -2.2114650346338749e-04</internalNodes>
          <leafValues>
            -4.1760873794555664e-01 2.3711912333965302e-01</leafValues></_>
        <_>
          <internalNodes>
            0 -1 93 -1.3842176122125238e-04</internalNodes>
          <leafValues>
            1.4257645606994629e-01 -6.1620110273361206e-01</leafValues></_>
        <_>
          <internalNodes>
            0 -1 90 -7.2339847974944860e-05</internalNodes>
          <leafValues>
            3.9463475346565247e-01 -2.5545403361320496e-01</leafValues></_>
        <_>
          <internalNodes>
            0 -1 10 -1.9833733676932752e-04</internalNodes>
          <leafValues>
            -2.9181596636772156e-01 3.2794335484504700e-01</leafValues></_></weakClassifiers></_>
    <!-- stage 15 -->
    <_>
      <maxWeakCount>12</maxWeakCount>
      <stageThreshold>-9.2203849554061890e-01</stageThreshold>
      <weakClassifiers>
        <_>
          <internalNodes>
            0 -1 116 1.2729287147521973e-01</internalNodes>
          <leafValues>
            -5.5981940031051636e-01 7.1875000000000000e-01</leafValues></_>
        <_>
          <internalNodes>
            0 -1 36 6.6798344254493713e-02</internalNodes>
          <leafValues>
            -2.1070432662963867e-01 8.7210559844970703e-01</leafValues></_>
        <_>
          <internalNodes>
            0 -1 91 -2.2637286782264709e-01</internalNodes>
          <leafValues>
            1. -4.1919283568859100e-02</leafValues></_>
        <_>
          <internalNodes>
            0 -1 27 -3.4632853930816054e-04</internalNodes>
          <leafValues>
            -9.7345548868179321e-01 1.3326554000377655e-01</leafValues></_>
        <_>
          <internalNodes>
            0 -1 106 -3.6798033863306046e-02</internalNodes>
          <leafValues>
            8.9403223991394043e-01 -1.2414494156837463e-01</leafValues></_>
        <_>
          <internalNodes>
            0 -1 18 -9.4586294144392014e-03</internalNodes>
          <leafValues>
            -4.6733179688453674e-01 2.6137387752532959e-01</leafValues></_>
        <_>
          <internalNodes>
            0 -1 57 -5.2311364561319351e-03</internalNodes>
          <leafValues>
            5.2877426147460938e-01 -2.1519143879413605e-01</leafValues></_>
        <_>
          <internalNodes>
            0 -1 55 1.7429113388061523e-01</internalNodes>
          <leafValues>
            -5.8009105920791626e-01 2.1561351418495178e-01</leafValues></_>
        <_>
          <internalNodes>
            0 -1 63 3.9705093950033188e-03</internalNodes>
          <leafValues>
            -2.1889802813529968e-01 6.1444610357284546e-01</leafValues></_>
        <_>
          <internalNodes>
            0 -1 31 -9.0277520939707756e-04</internalNodes>
          <leafValues>
            2.4619913101196289e-01 -4.6690508723258972e-01</leafValues></_>
        <_>
          <internalNodes>
            0 -1 108 -3.5276552662253380e-03</internalNodes>
          <leafValues>
            5.5832767486572266e-01 -2.1969050168991089e-01</leafValues></_>
        <_>
          <internalNodes>
            0 -1 49 -1.3825319707393646e-02</internalNodes>
          <leafValues>
            7.2719275951385498e-01 -1.8812261521816254e-01</leafValues></_></weakClassifiers></_>
    <!-- stage 16 -->
    <_>
      <maxWeakCount>7</maxWeakCount>
      <stageThreshold>-1.5342934131622314e+00</stageThreshold>
      <weakClassifiers>
        <_>
          <internalNodes>
            0 -1 114 -1.0112037882208824e-02</internalNodes>
          <leafValues>
            1. -5.9635120630264282e-01</leafValues></_>
        <_>
          <internalNodes>
            0 -1 37 -1.4718370512127876e-02</internalNodes>
          <leafValues>
            8.2549732923507690e-01 -3.2773536443710327e-01</leafValues></_>
        <_>
          <internalNodes>
            0 -1 35 7.5343009084463120e-03</internalNodes>
          <leafValues>
            -5.7072299718856812e-01 3.1785497069358826e-01</leafValues></_>
        <_>
          <internalNodes>
            0 -1 87 -3.2376069575548172e-03</internalNodes>
          <leafValues>
            7.2526967525482178e-01 -2.3695714771747589e-01</leafValues></_>
        <_>
          <internalNodes>
            0 -1 112 -4.3766060844063759e-03</internalNodes>
          <leafValues>
            -3.4564533829689026e-01 5.3452169895172119e-01</leafValues></_>
        <_>
          <internalNodes>
            0 -1 107 -5.3475573658943176e-02</internalNodes>
          <leafValues>
            6.9931626319885254e-01 -2.9611912369728088e-01</leafValues></_>
        <_>
          <internalNodes>
            0 -1 81 -5.8371074497699738e-02</internalNodes>
          <leafValues>
            8.9158987998962402e-01 -3.1399500370025635e-01</leafValues></_></weakClassifiers></_></stages>
  <features>
    <_>
      <rects>
        <_>
          0 3 2 14 -1.</_>
        <_>
          0 3 1 7 2.</_>
        <_>
          1 10 1 7 2.</_></rects>
      <tilted>0</tilted></_>
    <_>
      <rects>
        <_>
          0 3 16 17 -1.</_>
        <_>
          8 3 8 17 2.</_></rects>
      <tilted>0</tilted></_>
    <_>
      <rects>
        <_>
          0 5 18 12 -1.</_>
        <_>
          6 9 6 4 9.</_></rects>
      <tilted>0</tilted></_>
    <_>
      <rects>
        <_>
          0 6 18 14 -1.</_>
        <_>
          9 6 9 14 2.</_></rects>
      <tilted>0</tilted></_>
    <_>
      <rects>
        <_>
          0 8 14 8 -1.</_>
        <_>
          7 8 7 8 2.</_></rects>
      <tilted>0</tilted></_>
    <_>
      <rects>
        <_>
          0 9 12 3 -1.</_>
        <_>
          6 9 6 3 2.</_></rects>
      <tilted>0</tilted></_>
    <_>
      <rects>
        <_>
          0 12 4 6 -1.</_>
        <_>
          1 12 2 6 2.</_></rects>
      <tilted>0</tilted></_>
    <_>
      <rects>
        <_>
          0 14 15 4 -1.</_>
        <_>
          0 15 15 2 2.</_></rects>
      <tilted>0</tilted></_>
    <_>
      <rects>
        <_>
          0 15 12 4 -1.</_>
        <_>
          6 15 6 4 2.</_></rects>
      <tilted>0</tilted></_>
    <_>
      <rects>
        <_>
          0 17 18 3 -1.</_>
        <_>
          6 18 6 1 9.</_></rects>
      <tilted>0</tilted></_>
    <_>
      <rects>
        <_>
          1 0 4 10 -1.</_>
        <_>
          2 0 2 10 2.</_></rects>
      <tilted>0</tilted></_>
    <_>
      <rects>
        <_>
          1 3 18 15 -1.</_>
        <_>
          7 8 6 5 9.</_></rects>
      <tilted>0</tilted></_>
    <_>
      <rects>
        <_>
          1 5 18 12 -1.</_>
        <_>
          7 5 6 12 3.</_></rects>
      <tilted>0</tilted></_>
    <_>
      <rects>
        <_>
          1 6 12 2 -1.</_>
        <_>
          1 7 12 1 2.</_></rects>
      <tilted>0</tilted></_>
    <_>
      <rects>
        <_>
          1 8 6 12 -1.</_>
        <_>
          3 8 2 12 3.</_></rects>
      <tilted>0</tilted></_>
    <_>
      <rects>
        <_>
          1 8 18 9 -1.</_>
        <_>
          7 8 6 9 3.</_></rects>
      <tilted>0</tilted></_>
    <_>
      <rects>
        <_>
          1 9 18 5 -1.</_>
        <_>
          7 9 6 5 3.</_></rects>
      <tilted>0</tilted></_>
    <_>
      <rects>
        <_>
          1 15 12 5 -1.</_>
        <_>
          7 15 6 5 2.</_></rects>
      <tilted>0</tilted></_>
    <_>
      <rects>
        <_>
          2 3 11 4 -1.</_>
        <_>
          2 4 11 2 2.</_></rects>
      <tilted>0</tilted></_>
    <_>
      <rects>
        <_>
          2 4 16 13 -1.</_>
        <_>
          6 4 8 13 2.</_></rects>
      <tilted>0</tilted></_>
    <_>
      <rects>
        <_>
          2 5 16 1 -1.</_>
        <_>
          6 5 8 1 2.</_></rects>
      <tilted>0</tilted></_>
    <_>
      <rects>
        <_>
          2 9 16 6 -1.</_>
        <_>
          6 9 8 6 2.</_></rects>
      <tilted>0</tilted></_>
    <_>
      <rects>
        <_>
          2 10 3 10 -1.</_>
        <_>
          2 15 3 5 2.</_></rects>
      <tilted>0</tilted></_>
    <_>
      <rects>
        <_>
          2 11 6 6 -1.</_>
        <_>
          4 13 2 2 9.</_></rects>
      <tilted>0</tilted></_>
    <_>
      <rects>
        <_>
          2 12 3 2 -1.</_>
        <_>
          2 12 3 1 2.</_></rects>
      <tilted>1</tilted></_>
    <_>
      <rects>
        <_>
          2 15 10 4 -1.</_>
        <_>
          7 15 5 4 2.</_></rects>
      <tilted>0</tilted></_>
    <_>
      <rects>
        <_>
          2 17 10 2 -1.</_>
        <_>
          2 17 5 1 2.</_>
        <_>
          7 18 5 1 2.</_></rects>
      <tilted>0</tilted></_>
    <_>
      <rects>
        <_>
          2 18 3 2 -1.</_>
        <_>
          3 18 1 2 3.</_></rects>
      <tilted>0</tilted></_>
    <_>
      <rects>
        <_>
          3 1 6 6 -1.</_>
        <_>
          6 1 3 6 2.</_></rects>
      <tilted>0</tilted></_>
    <_>
      <rects>
        <_>
          3 3 16 2 -1.</_>
        <_>
          7 3 8 2 2.</_></rects>
      <tilted>0</tilted></_>
    <_>
      <rects>
        <_>
          3 5 15 9 -1.</_>
        <_>
          8 8 5 3 9.</_></rects>
      <tilted>0</tilted></_>
    <_>
      <rects>
        <_>
          3 11 4 9 -1.</_>
        <_>
          4 11 2 9 2.</_></rects>
      <tilted>0</tilted></_>
    <_>
      <rects>
        <_>
          3 18 6 2 -1.</_>
        <_>
          5 18 2 2 3.</_></rects>
      <tilted>0</tilted></_>
    <_>
      <rects>
        <_>
          4 1 15 18 -1.</_>
        <_>
          9 7 5 6 9.</_></rects>
      <tilted>0</tilted></_>
    <_>
      <rects>
        <_>
          4 1 12 3 -1.</_>
        <_>
          4 1 6 3 2.</_></rects>
      <tilted>1</tilted></_>
    <_>
      <rects>
        <_>
          4 6 8 4 -1.</_>
        <_>
          4 6 4 2 2.</_>
        <_>
          8 8 4 2 2.</_></rects>
      <tilted>0</tilted></_>
    <_>
      <rects>
        <_>
          4 7 4 9 -1.</_>
        <_>
          6 7 2 9 2.</_></rects>
      <tilted>0</tilted></_>
    <_>
      <rects>
        <_>
          4 10 3 6 -1.</_>
        <_>
          5 12 1 2 9.</_></rects>
      <tilted>0</tilted></_>
    <_>
      <rects>
        <_>
          4 10 12 4 -1.</_>
        <_>
          4 12 12 2 2.</_></rects>
      <tilted>0</tilted></_>
    <_>
      <rects>
        <_>
          4 11 2 4 -1.</_>
        <_>
          3 12 2 2 2.</_></rects>
      <tilted>1</tilted></_>
    <_>
      <rects>
        <_>
          4 12 4 1 -1.</_>
        <_>
          5 12 2 1 2.</_></rects>
      <tilted>0</tilted></_>
    <_>
      <rects>
        <_>
          4 13 12 2 -1.</_>
        <_>
          4 13 6 1 2.</_>
        <_>
          10 14 6 1 2.</_></rects>
      <tilted>0</tilted></_>
    <_>
      <rects>
        <_>
          5 1 15 2 -1.</_>
        <_>
          10 6 5 2 3.</_></rects>
      <tilted>1</tilted></_>
    <_>
      <rects>
        <_>
          5 1 15 4 -1.</_>
        <_>
          10 6 5 4 3.</_></rects>
      <tilted>1</tilted></_>
    <_>
      <rects>
        <_>
          5 1 6 3 -1.</_>
        <_>
          4 2 6 1 3.</_></rects>
      <tilted>1</tilted></_>
    <_>
      <rects>
        <_>
          5 1 7 14 -1.</_>
        <_>
          5 8 7 7 2.</_></rects>
      <tilted>0</tilted></_>
    <_>
      <rects>
        <_>
          5 4 9 6 -1.</_>
        <_>
          5 6 9 2 3.</_></rects>
      <tilted>0</tilted></_>
    <_>
      <rects>
        <_>
          5 6 7 3 -1.</_>
        <_>
          5 7 7 1 3.</_></rects>
      <tilted>0</tilted></_>
    <_>
      <rects>
        <_>
          5 8 4 2 -1.</_>
        <_>
          5 8 2 1 2.</_>
        <_>
          7 9 2 1 2.</_></rects>
      <tilted>0</tilted></_>
    <_>
      <rects>
        <_>
          5 14 12 2 -1.</_>
        <_>
          5 15 12 1 2.</_></rects>
      <tilted>0</tilted></_>
    <_>
      <rects>
        <_>
          5 15 6 3 -1.</_>
        <_>
          7 15 2 3 3.</_></rects>
      <tilted>0</tilted></_>
    <_>
      <rects>
        <_>
          5 18 4 2 -1.</_>
        <_>
          5 18 2 1 2.</_>
        <_>
          7 19 2 1 2.</_></rects>
      <tilted>0</tilted></_>
    <_>
      <rects>
        <_>
          5 19 12 1 -1.</_>
        <_>
          9 19 4 1 3.</_></rects>
      <tilted>0</tilted></_>
    <_>
      <rects>
        <_>
          6 0 6 8 -1.</_>
        <_>
          8 0 2 8 3.</_></rects>
      <tilted>0</tilted></_>
    <_>
      <rects>
        <_>
          6 2 6 2 -1.</_>
        <_>
          6 2 6 1 2.</_></rects>
      <tilted>1</tilted></_>
    <_>
      <rects>
        <_>
          6 4 12 4 -1.</_>
        <_>
          9 7 6 4 2.</_></rects>
      <tilted>1</tilted></_>
    <_>
      <rects>
        <_>
          6 5 8 3 -1.</_>
        <_>
          8 5 4 3 2.</_></rects>
      <tilted>0</tilted></_>
    <_>
      <rects>
        <_>
          6 5 9 2 -1.</_>
        <_>
          9 5 3 2 3.</_></rects>
      <tilted>0</tilted></_>
    <_>
      <rects>
        <_>
          6 6 6 9 -1.</_>
        <_>
          8 9 2 3 9.</_></rects>
      <tilted>0</tilted></_>
    <_>
      <rects>
        <_>
          6 6 9 2 -1.</_>
        <_>
          9 6 3 2 3.</_></rects>
      <tilted>0</tilted></_>
    <_>
      <rects>
        <_>
          6 9 14 10 -1.</_>
        <_>
          6 9 7 5 2.</_>
        <_>
          13 14 7 5 2.</_></rects>
      <tilted>0</tilted></_>
    <_>
      <rects>
        <_>
          6 9 8 6 -1.</_>
        <_>
          6 12 8 3 2.</_></rects>
      <tilted>0</tilted></_>
    <_>
      <rects>
        <_>
          6 11 2 2 -1.</_>
        <_>
          6 12 2 1 2.</_></rects>
      <tilted>0</tilted></_>
    <_>
      <rects>
        <_>
          6 14 10 4 -1.</_>
        <_>
          6 15 10 2 2.</_></rects>
      <tilted>0</tilted></_>
    <_>
      <rects>
        <_>
          7 1 9 9 -1.</_>
        <_>
          10 4 3 3 9.</_></rects>
      <tilted>0</tilted></_>
    <_>
      <rects>
        <_>
          7 2 4 4 -1.</_>
        <_>
          6 3 4 2 2.</_></rects>
      <tilted>1</tilted></_>
    <_>
      <rects>
        <_>
          7 4 7 16 -1.</_>
        <_>
          7 12 7 8 2.</_></rects>
      <tilted>0</tilted></_>
    <_>
      <rects>
        <_>
          7 7 8 9 -1.</_>
        <_>
          7 10 8 3 3.</_></rects>
      <tilted>0</tilted></_>
    <_>
      <rects>
        <_>
          7 9 7 8 -1.</_>
        <_>
          7 11 7 4 2.</_></rects>
      <tilted>0</tilted></_>
    <_>
      <rects>
        <_>
          7 12 6 2 -1.</_>
        <_>
          7 13 6 1 2.</_></rects>
      <tilted>0</tilted></_>
    <_>
      <rects>
        <_>
          7 17 12 3 -1.</_>
        <_>
          11 18 4 1 9.</_></rects>
      <tilted>0</tilted></_>
    <_>
      <rects>
        <_>
          8 0 4 8 -1.</_>
        <_>
          9 0 2 8 2.</_></rects>
      <tilted>0</tilted></_>
    <_>
      <rects>
        <_>
          8 0 3 6 -1.</_>
        <_>
          8 2 3 2 3.</_></rects>
      <tilted>0</tilted></_>
    <_>
      <rects>
        <_>
          8 0 4 12 -1.</_>
        <_>
          8 6 4 6 2.</_></rects>
      <tilted>0</tilted></_>
    <_>
      <rects>
        <_>
          8 0 7 6 -1.</_>
        <_>
          8 2 7 2 3.</_></rects>
      <tilted>0</tilted></_>
    <_>
      <rects>
        <_>
          8 3 3 5 -1.</_>
        <_>
          9 3 1 5 3.</_></rects>
      <tilted>0</tilted></_>
    <_>
      <rects>
        <_>
          8 3 6 5 -1.</_>
        <_>
          10 3 2 5 3.</_></rects>
      <tilted>0</tilted></_>
    <_>
      <rects>
        <_>
          8 4 9 2 -1.</_>
        <_>
          11 7 3 2 3.</_></rects>
      <tilted>1</tilted></_>
    <_>
      <rects>
        <_>
          8 6 6 2 -1.</_>
        <_>
          10 6 2 2 3.</_></rects>
      <tilted>0</tilted></_>
    <_>
      <rects>
        <_>
          8 6 5 14 -1.</_>
        <_>
          8 13 5 7 2.</_></rects>
      <tilted>0</tilted></_>
    <_>
      <rects>
        <_>
          8 6 12 2 -1.</_>
        <_>
          8 6 6 1 2.</_>
        <_>
          14 7 6 1 2.</_></rects>
      <tilted>0</tilted></_>
    <_>
      <rects>
        <_>
          8 8 9 9 -1.</_>
        <_>
          11 11 3 3 9.</_></rects>
      <tilted>0</tilted></_>
    <_>
      <rects>
        <_>
          8 8 8 8 -1.</_>
        <_>
          8 10 8 4 2.</_></rects>
      <tilted>0</tilted></_>
    <_>
      <rects>
        <_>
          8 11 1 2 -1.</_>
        <_>
          8 12 1 1 2.</_></rects>
      <tilted>0</tilted></_>
    <_>
      <rects>
        <_>
          8 12 1 2 -1.</_>
        <_>
          8 13 1 1 2.</_></rects>
      <tilted>0</tilted></_>
    <_>
      <rects>
        <_>
          8 14 8 2 -1.</_>
        <_>
          8 15 8 1 2.</_></rects>
      <tilted>0</tilted></_>
    <_>
      <rects>
        <_>
          8 14 8 6 -1.</_>
        <_>
          8 17 8 3 2.</_></rects>
      <tilted>0</tilted></_>
    <_>
      <rects>
        <_>
          8 15 6 3 -1.</_>
        <_>
          10 16 2 1 9.</_></rects>
      <tilted>0</tilted></_>
    <_>
      <rects>
        <_>
          8 16 6 3 -1.</_>
        <_>
          10 17 2 1 9.</_></rects>
      <tilted>0</tilted></_>
    <_>
      <rects>
        <_>
          9 0 6 10 -1.</_>
        <_>
          9 5 6 5 2.</_></rects>
      <tilted>0</tilted></_>
    <_>
      <rects>
        <_>
          9 2 6 3 -1.</_>
        <_>
          12 2 3 3 2.</_></rects>
      <tilted>0</tilted></_>
    <_>
      <rects>
        <_>
          9 2 9 12 -1.</_>
        <_>
          12 6 3 4 9.</_></rects>
      <tilted>0</tilted></_>
    <_>
      <rects>
        <_>
          9 4 7 2 -1.</_>
        <_>
          9 4 7 1 2.</_></rects>
      <tilted>1</tilted></_>
    <_>
      <rects>
        <_>
          9 12 1 2 -1.</_>
        <_>
          9 13 1 1 2.</_></rects>
      <tilted>0</tilted></_>
    <_>
      <rects>
        <_>
          9 12 1 3 -1.</_>
        <_>
          8 13 1 1 3.</_></rects>
      <tilted>1</tilted></_>
    <_>
      <rects>
        <_>
          9 14 8 6 -1.</_>
        <_>
          13 14 4 6 2.</_></rects>
      <tilted>0</tilted></_>
    <_>
      <rects>
        <_>
          9 15 3 4 -1.</_>
        <_>
          9 17 3 2 2.</_></rects>
      <tilted>0</tilted></_>
    <_>
      <rects>
        <_>
          10 0 1 20 -1.</_>
        <_>
          10 5 1 10 2.</_></rects>
      <tilted>0</tilted></_>
    <_>
      <rects>
        <_>
          10 4 9 1 -1.</_>
        <_>
          13 7 3 1 3.</_></rects>
      <tilted>1</tilted></_>
    <_>
      <rects>
        <_>
          10 7 3 4 -1.</_>
        <_>
          11 8 1 4 3.</_></rects>
      <tilted>1</tilted></_>
    <_>
      <rects>
        <_>
          10 10 3 9 -1.</_>
        <_>
          10 13 3 3 3.</_></rects>
      <tilted>0</tilted></_>
    <_>
      <rects>
        <_>
          10 11 4 4 -1.</_>
        <_>
          10 13 4 2 2.</_></rects>
      <tilted>0</tilted></_>
    <_>
      <rects>
        <_>
          10 14 9 3 -1.</_>
        <_>
          13 14 3 3 3.</_></rects>
      <tilted>0</tilted></_>
    <_>
      <rects>
        <_>
          10 17 2 1 -1.</_>
        <_>
          10 17 1 1 2.</_></rects>
      <tilted>1</tilted></_>
    <_>
      <rects>
        <_>
          11 2 6 6 -1.</_>
        <_>
          13 4 2 6 3.</_></rects>
      <tilted>1</tilted></_>
    <_>
      <rects>
        <_>
          11 2 6 9 -1.</_>
        <_>
          8 5 6 3 3.</_></rects>
      <tilted>1</tilted></_>
    <_>
      <rects>
        <_>
          11 8 2 9 -1.</_>
        <_>
          11 11 2 3 3.</_></rects>
      <tilted>0</tilted></_>
    <_>
      <rects>
        <_>
          11 10 2 10 -1.</_>
        <_>
          11 15 2 5 2.</_></rects>
      <tilted>0</tilted></_>
    <_>
      <rects>
        <_>
          11 10 3 2 -1.</_>
        <_>
          11 11 3 1 2.</_></rects>
      <tilted>0</tilted></_>
    <_>
      <rects>
        <_>
          11 13 2 2 -1.</_>
        <_>
          11 14 2 1 2.</_></rects>
      <tilted>0</tilted></_>
    <_>
      <rects>
        <_>
          11 14 4 5 -1.</_>
        <_>
          12 14 2 5 2.</_></rects>
      <tilted>0</tilted></_>
    <_>
      <rects>
        <_>
          11 17 9 3 -1.</_>
        <_>
          11 18 9 1 3.</_></rects>
      <tilted>0</tilted></_>
    <_>
      <rects>
        <_>
          12 2 7 8 -1.</_>
        <_>
          12 4 7 4 2.</_></rects>
      <tilted>0</tilted></_>
    <_>
      <rects>
        <_>
          13 0 5 4 -1.</_>
        <_>
          13 1 5 2 2.</_></rects>
      <tilted>0</tilted></_>
    <_>
      <rects>
        <_>
          13 1 6 4 -1.</_>
        <_>
          15 3 2 4 3.</_></rects>
      <tilted>1</tilted></_>
    <_>
      <rects>
        <_>
          13 2 6 2 -1.</_>
        <_>
          15 4 2 2 3.</_></rects>
      <tilted>1</tilted></_>
    <_>
      <rects>
        <_>
          13 9 4 5 -1.</_>
        <_>
          13 9 2 5 2.</_></rects>
      <tilted>1</tilted></_>
    <_>
      <rects>
        <_>
          13 17 6 3 -1.</_>
        <_>
          15 18 2 1 9.</_></rects>
      <tilted>0</tilted></_>
    <_>
      <rects>
        <_>
          13 18 4 2 -1.</_>
        <_>
          14 18 2 2 2.</_></rects>
      <tilted>0</tilted></_>
    <_>
      <rects>
        <_>
          14 0 5 14 -1.</_>
        <_>
          14 0 5 7 2.</_></rects>
      <tilted>1</tilted></_>
    <_>
      <rects>
        <_>
          14 1 4 13 -1.</_>
        <_>
          15 1 2 13 2.</_></rects>
      <tilted>0</tilted></_>
    <_>
      <rects>
        <_>
          14 7 3 4 -1.</_>
        <_>
          13 8 3 2 2.</_></rects>
      <tilted>1</tilted></_>
    <_>
      <rects>
        <_>
          16 1 1 16 -1.</_>
        <_>
          16 5 1 8 2.</_></rects>
      <tilted>0</tilted></_>
    <_>
      <rects>
        <_>
          17 10 3 9 -1.</_>
        <_>
          18 13 1 3 9.</_></rects>
      <tilted>0</tilted></_>
    <_>
      <rects>
        <_>
          17 11 3 8 -1.</_>
        <_>
          17 15 3 4 2.</_></rects>
      <tilted>0</tilted></_>
    <_>
      <rects>
        <_>
          17 12 3 3 -1.</_>
        <_>
          17 13 3 1 3.</_></rects>
      <tilted>0</tilted></_></features></cascade>
</opencv_storage>
