<?xml version="1.0"?>
<opencv_storage>
<stage1>
  <maxWeakCount>5</maxWeakCount>
  <stageThreshold>-1.2078899145126343e+00</stageThreshold>
  <weakClassifiers>
    <_>
      <internalNodes>
        0 -1 13003 1.1653574705123901e+00</internalNodes>
      <leafValues>
        -8.9329683780670166e-01 9.2694061994552612e-01</leafValues></_>
    <_>
      <internalNodes>
        0 -1 95370 1.9351527094841003e-01</internalNodes>
      <leafValues>
        -6.2816929817199707e-01 7.1429008245468140e-01</leafValues></_>
    <_>
      <internalNodes>
        0 -1 86663 -1.7689306288957596e-02</internalNodes>
      <leafValues>
        8.5992610454559326e-01 -4.5224303007125854e-01</leafValues></_>
    <_>
      <internalNodes>
        0 -1 75284 4.3057329952716827e-02</internalNodes>
      <leafValues>
        -7.7141541242599487e-01 4.4553402066230774e-01</leafValues></_>
    <_>
      <internalNodes>
        0 -1 55760 1.2395746307447553e-03</internalNodes>
      <leafValues>
        3.2028529047966003e-01 -8.8905632495880127e-01</leafValues></_></weakClassifiers></stage1>
</opencv_storage>
