<?xml version="1.0"?>
<opencv_storage>
<stage13>
  <maxWeakCount>11</maxWeakCount>
  <stageThreshold>-9.5491057634353638e-01</stageThreshold>
  <weakClassifiers>
    <_>
      <internalNodes>
        0 -1 89699 -1.5397777780890465e-02</internalNodes>
      <leafValues>
        5.0769233703613281e-01 -5.4576271772384644e-01</leafValues></_>
    <_>
      <internalNodes>
        0 -1 59668 -5.1575088873505592e-03</internalNodes>
      <leafValues>
        5.2308785915374756e-01 -2.7664154767990112e-01</leafValues></_>
    <_>
      <internalNodes>
        0 -1 28432 1.8567701335996389e-03</internalNodes>
      <leafValues>
        -4.5412188768386841e-01 2.4224276840686798e-01</leafValues></_>
    <_>
      <internalNodes>
        0 -1 39385 -1.9422742724418640e-01</internalNodes>
      <leafValues>
        3.4938842058181763e-01 -3.2748553156852722e-01</leafValues></_>
    <_>
      <internalNodes>
        0 -1 65219 -1.7295333743095398e-01</internalNodes>
      <leafValues>
        8.2734513282775879e-01 -1.1276701092720032e-01</leafValues></_>
    <_>
      <internalNodes>
        0 -1 57873 4.0320581756532192e-03</internalNodes>
      <leafValues>
        -1.4305549860000610e-01 5.3986448049545288e-01</leafValues></_>
    <_>
      <internalNodes>
        0 -1 27489 1.1379003990441561e-03</internalNodes>
      <leafValues>
        1.3240955770015717e-01 -9.0828669071197510e-01</leafValues></_>
    <_>
      <internalNodes>
        0 -1 52057 -2.4190084077417850e-03</internalNodes>
      <leafValues>
        2.1625176072120667e-01 -3.9378982782363892e-01</leafValues></_>
    <_>
      <internalNodes>
        0 -1 91066 -1.4545432291924953e-02</internalNodes>
      <leafValues>
        -8.2170325517654419e-01 1.1941026896238327e-01</leafValues></_>
    <_>
      <internalNodes>
        0 -1 110964 -7.9852750059217215e-04</internalNodes>
      <leafValues>
        2.6837694644927979e-01 -3.5607481002807617e-01</leafValues></_>
    <_>
      <internalNodes>
        0 -1 78599 -4.4453721493482590e-03</internalNodes>
      <leafValues>
        -8.3397752046585083e-01 1.1605283617973328e-01</leafValues></_></weakClassifiers></stage13>
</opencv_storage>
