<?xml version="1.0"?>
<opencv_storage>
<stage2>
  <maxWeakCount>6</maxWeakCount>
  <stageThreshold>-1.2556983232498169e+00</stageThreshold>
  <weakClassifiers>
    <_>
      <internalNodes>
        0 -1 16303 3.9309406280517578e-01</internalNodes>
      <leafValues>
        -8.9586526155471802e-01 4.5454546809196472e-01</leafValues></_>
    <_>
      <internalNodes>
        0 -1 48457 2.3602607846260071e-01</internalNodes>
      <leafValues>
        -5.2317738533020020e-01 5.2521342039108276e-01</leafValues></_>
    <_>
      <internalNodes>
        0 -1 26669 -7.9471543431282043e-03</internalNodes>
      <leafValues>
        -8.0861926078796387e-01 2.2196222841739655e-01</leafValues></_>
    <_>
      <internalNodes>
        0 -1 18906 3.5533173941075802e-03</internalNodes>
      <leafValues>
        -5.5594426393508911e-01 3.3070150017738342e-01</leafValues></_>
    <_>
      <internalNodes>
        0 -1 123337 -4.7391850966960192e-04</internalNodes>
      <leafValues>
        -8.1353574991226196e-01 2.0908561348915100e-01</leafValues></_>
    <_>
      <internalNodes>
        0 -1 78922 -1.2236087059136480e-04</internalNodes>
      <leafValues>
        2.8824073076248169e-01 -5.6011968851089478e-01</leafValues></_></weakClassifiers></stage2>
</opencv_storage>
