<?xml version="1.0"?>
<opencv_storage>
<stage15>
  <maxWeakCount>12</maxWeakCount>
  <stageThreshold>-9.2203849554061890e-01</stageThreshold>
  <weakClassifiers>
    <_>
      <internalNodes>
        0 -1 109228 1.2729287147521973e-01</internalNodes>
      <leafValues>
        -5.5981940031051636e-01 7.1875000000000000e-01</leafValues></_>
    <_>
      <internalNodes>
        0 -1 43488 6.6798344254493713e-02</internalNodes>
      <leafValues>
        -2.1070432662963867e-01 8.7210559844970703e-01</leafValues></_>
    <_>
      <internalNodes>
        0 -1 81644 -2.2637286782264709e-01</internalNodes>
      <leafValues>
        1. -4.1919283568859100e-02</leafValues></_>
    <_>
      <internalNodes>
        0 -1 28815 -3.4632853930816054e-04</internalNodes>
      <leafValues>
        -9.7345548868179321e-01 1.3326554000377655e-01</leafValues></_>
    <_>
      <internalNodes>
        0 -1 97960 -3.6798033863306046e-02</internalNodes>
      <leafValues>
        8.9403223991394043e-01 -1.2414494156837463e-01</leafValues></_>
    <_>
      <internalNodes>
        0 -1 22658 -9.4586294144392014e-03</internalNodes>
      <leafValues>
        -4.6733179688453674e-01 2.6137387752532959e-01</leafValues></_>
    <_>
      <internalNodes>
        0 -1 59749 -5.2311364561319351e-03</internalNodes>
      <leafValues>
        5.2877426147460938e-01 -2.1519143879413605e-01</leafValues></_>
    <_>
      <internalNodes>
        0 -1 59111 1.7429113388061523e-01</internalNodes>
      <leafValues>
        -5.8009105920791626e-01 2.1561351418495178e-01</leafValues></_>
    <_>
      <internalNodes>
        0 -1 63695 3.9705093950033188e-03</internalNodes>
      <leafValues>
        -2.1889802813529968e-01 6.1444610357284546e-01</leafValues></_>
    <_>
      <internalNodes>
        0 -1 36203 -9.0277520939707756e-04</internalNodes>
      <leafValues>
        2.4619913101196289e-01 -4.6690508723258972e-01</leafValues></_>
    <_>
      <internalNodes>
        0 -1 98675 -3.5276552662253380e-03</internalNodes>
      <leafValues>
        5.5832767486572266e-01 -2.1969050168991089e-01</leafValues></_>
    <_>
      <internalNodes>
        0 -1 55272 -1.3825319707393646e-02</internalNodes>
      <leafValues>
        7.2719275951385498e-01 -1.8812261521816254e-01</leafValues></_></weakClassifiers></stage15>
</opencv_storage>
