<?xml version="1.0"?>
<opencv_storage>
<stage3>
  <maxWeakCount>7</maxWeakCount>
  <stageThreshold>-1.1529171466827393e+00</stageThreshold>
  <weakClassifiers>
    <_>
      <internalNodes>
        0 -1 26256 2.5391304492950439e-01</internalNodes>
      <leafValues>
        -7.0801031589508057e-01 5.5681818723678589e-01</leafValues></_>
    <_>
      <internalNodes>
        0 -1 62138 -6.3070803880691528e-02</internalNodes>
      <leafValues>
        3.5109823942184448e-01 -5.2290189266204834e-01</leafValues></_>
    <_>
      <internalNodes>
        0 -1 86545 -8.6351856589317322e-03</internalNodes>
      <leafValues>
        3.6146977543830872e-01 -6.0836392641067505e-01</leafValues></_>
    <_>
      <internalNodes>
        0 -1 37873 1.2402659049257636e-03</internalNodes>
      <leafValues>
        1.6604895889759064e-01 -8.7356871366500854e-01</leafValues></_>
    <_>
      <internalNodes>
        0 -1 79590 1.0288037359714508e-02</internalNodes>
      <leafValues>
        -1.9044531881809235e-01 7.9270309209823608e-01</leafValues></_>
    <_>
      <internalNodes>
        0 -1 86987 4.5310430228710175e-02</internalNodes>
      <leafValues>
        -4.1216075420379639e-01 3.6221164464950562e-01</leafValues></_>
    <_>
      <internalNodes>
        0 -1 9458 1.7382500227540731e-03</internalNodes>
      <leafValues>
        -4.7081303596496582e-01 2.4891602993011475e-01</leafValues></_></weakClassifiers></stage3>
</opencv_storage>
