<?xml version="1.0"?>
<opencv_storage>
<stage12>
  <maxWeakCount>6</maxWeakCount>
  <stageThreshold>-1.2993493080139160e+00</stageThreshold>
  <weakClassifiers>
    <_>
      <internalNodes>
        0 -1 62123 1.9752040505409241e-01</internalNodes>
      <leafValues>
        -6.4356434345245361e-01 4.9295774102210999e-01</leafValues></_>
    <_>
      <internalNodes>
        0 -1 30039 1.3734897947870195e-04</internalNodes>
      <leafValues>
        -4.9400764703750610e-01 5.1637148857116699e-01</leafValues></_>
    <_>
      <internalNodes>
        0 -1 28757 6.5732724033296108e-04</internalNodes>
      <leafValues>
        1.9406051933765411e-01 -9.1895365715026855e-01</leafValues></_>
    <_>
      <internalNodes>
        0 -1 83039 -3.3429465256631374e-03</internalNodes>
      <leafValues>
        2.6840943098068237e-01 -7.1239149570465088e-01</leafValues></_>
    <_>
      <internalNodes>
        0 -1 62669 -3.2869614660739899e-03</internalNodes>
      <leafValues>
        5.5293250083923340e-01 -3.2252162694931030e-01</leafValues></_>
    <_>
      <internalNodes>
        0 -1 9301 2.9115374200046062e-03</internalNodes>
      <leafValues>
        -2.9177108407020569e-01 6.7907530069351196e-01</leafValues></_></weakClassifiers></stage12>
</opencv_storage>
