<?xml version="1.0"?>
<opencv_storage>
<stage10>
  <maxWeakCount>5</maxWeakCount>
  <stageThreshold>-9.9447160959243774e-01</stageThreshold>
  <weakClassifiers>
    <_>
      <internalNodes>
        0 -1 72532 1.2998874485492706e-01</internalNodes>
      <leafValues>
        -8.0300498008728027e-01 8.8319085538387299e-02</leafValues></_>
    <_>
      <internalNodes>
        0 -1 118736 -4.2457220843061805e-04</internalNodes>
      <leafValues>
        5.9168958663940430e-01 -3.5382393002510071e-01</leafValues></_>
    <_>
      <internalNodes>
        0 -1 72366 -1.8467547371983528e-02</internalNodes>
      <leafValues>
        -8.2126796245574951e-01 1.8506895005702972e-01</leafValues></_>
    <_>
      <internalNodes>
        0 -1 48528 -5.8218622580170631e-03</internalNodes>
      <leafValues>
        6.7875283956527710e-01 -2.6474386453628540e-01</leafValues></_>
    <_>
      <internalNodes>
        0 -1 123123 -6.4316093921661377e-03</internalNodes>
      <leafValues>
        -9.0688604116439819e-01 2.4203225970268250e-01</leafValues></_></weakClassifiers></stage10>
</opencv_storage>
