<?xml version="1.0"?>
<opencv_storage>
<stage16>
  <maxWeakCount>7</maxWeakCount>
  <stageThreshold>-1.5342934131622314e+00</stageThreshold>
  <weakClassifiers>
    <_>
      <internalNodes>
        0 -1 106268 -1.0112037882208824e-02</internalNodes>
      <leafValues>
        1. -5.9635120630264282e-01</leafValues></_>
    <_>
      <internalNodes>
        0 -1 44964 -1.4718370512127876e-02</internalNodes>
      <leafValues>
        8.2549732923507690e-01 -3.2773536443710327e-01</leafValues></_>
    <_>
      <internalNodes>
        0 -1 42986 7.5343009084463120e-03</internalNodes>
      <leafValues>
        -5.7072299718856812e-01 3.1785497069358826e-01</leafValues></_>
    <_>
      <internalNodes>
        0 -1 79659 -3.2376069575548172e-03</internalNodes>
      <leafValues>
        7.2526967525482178e-01 -2.3695714771747589e-01</leafValues></_>
    <_>
      <internalNodes>
        0 -1 101495 -4.3766060844063759e-03</internalNodes>
      <leafValues>
        -3.4564533829689026e-01 5.3452169895172119e-01</leafValues></_>
    <_>
      <internalNodes>
        0 -1 98653 -5.3475573658943176e-02</internalNodes>
      <leafValues>
        6.9931626319885254e-01 -2.9611912369728088e-01</leafValues></_>
    <_>
      <internalNodes>
        0 -1 77559 -5.8371074497699738e-02</internalNodes>
      <leafValues>
        8.9158987998962402e-01 -3.1399500370025635e-01</leafValues></_></weakClassifiers></stage16>
</opencv_storage>
