<?xml version="1.0"?>
<opencv_storage>
<cascade>
  <stageType>BOOST</stageType>
  <featureType>HAAR</featureType>
  <height>23</height>
  <width>20</width>
  <stageParams>
    <boostType>GAB</boostType>
    <minHitRate>9.9000000953674316e-01</minHitRate>
    <maxFalseAlarm>4.0000000596046448e-01</maxFalseAlarm>
    <weightTrimRate>9.4999998807907104e-01</weightTrimRate>
    <maxDepth>1</maxDepth>
    <maxWeakCount>100</maxWeakCount></stageParams>
  <featureParams>
    <maxCatCount>0</maxCatCount>
    <featSize>1</featSize>
    <mode>ALL</mode></featureParams>
  <stageNum>20</stageNum>
  <stages>
    <!-- stage 0 -->
    <_>
      <maxWeakCount>9</maxWeakCount>
      <stageThreshold>-1.2025403976440430e+00</stageThreshold>
      <weakClassifiers>
        <_>
          <internalNodes>
            0 -1 6 -8.9508563280105591e-02</internalNodes>
          <leafValues>
            5.3846156597137451e-01 -6.4912283420562744e-01</leafValues></_>
        <_>
          <internalNodes>
            0 -1 8 1.2459708750247955e-01</internalNodes>
          <leafValues>
            -3.3209568262100220e-01 7.0680916309356689e-01</leafValues></_>
        <_>
          <internalNodes>
            0 -1 197 1.1755821295082569e-02</internalNodes>
          <leafValues>
            -2.7871429920196533e-01 4.6666845679283142e-01</leafValues></_>
        <_>
          <internalNodes>
            0 -1 82 4.2353409528732300e-01</internalNodes>
          <leafValues>
            -1.9341616332530975e-01 6.6550904512405396e-01</leafValues></_>
        <_>
          <internalNodes>
            0 -1 32 -1.2515717744827271e-01</internalNodes>
          <leafValues>
            6.3102167844772339e-01 -2.4807488918304443e-01</leafValues></_>
        <_>
          <internalNodes>
            0 -1 56 -1.3791011646389961e-02</internalNodes>
          <leafValues>
            4.7845083475112915e-01 -2.8998449444770813e-01</leafValues></_>
        <_>
          <internalNodes>
            0 -1 68 -7.9827189445495605e-02</internalNodes>
          <leafValues>
            4.9283543229103088e-01 -2.8456923365592957e-01</leafValues></_>
        <_>
          <internalNodes>
            0 -1 50 5.8379499241709709e-03</internalNodes>
          <leafValues>
            -2.2981233894824982e-01 6.3028305768966675e-01</leafValues></_>
        <_>
          <internalNodes>
            0 -1 64 -1.4115480706095695e-02</internalNodes>
          <leafValues>
            6.5967500209808350e-01 -2.4259047210216522e-01</leafValues></_></weakClassifiers></_>
    <!-- stage 1 -->
    <_>
      <maxWeakCount>8</maxWeakCount>
      <stageThreshold>-1.3292137384414673e+00</stageThreshold>
      <weakClassifiers>
        <_>
          <internalNodes>
            0 -1 182 5.9470914304256439e-02</internalNodes>
          <leafValues>
            -6.1774742603302002e-01 5.4385966062545776e-01</leafValues></_>
        <_>
          <internalNodes>
            0 -1 123 -4.5970100909471512e-03</internalNodes>
          <leafValues>
            4.5992735028266907e-01 -3.9948463439941406e-01</leafValues></_>
        <_>
          <internalNodes>
            0 -1 92 5.8622978627681732e-02</internalNodes>
          <leafValues>
            -1.7471516132354736e-01 8.4340804815292358e-01</leafValues></_>
        <_>
          <internalNodes>
            0 -1 184 -1.6602983698248863e-02</internalNodes>
          <leafValues>
            5.4714459180831909e-01 -2.3981547355651855e-01</leafValues></_>
        <_>
          <internalNodes>
            0 -1 157 9.8197907209396362e-04</internalNodes>
          <leafValues>
            1.5666544437408447e-01 -8.2227796316146851e-01</leafValues></_>
        <_>
          <internalNodes>
            0 -1 192 1.2568184174597263e-03</internalNodes>
          <leafValues>
            -3.6029437184333801e-01 3.8671272993087769e-01</leafValues></_>
        <_>
          <internalNodes>
            0 -1 153 2.3906254209578037e-03</internalNodes>
          <leafValues>
            -2.2516310214996338e-01 6.0367143154144287e-01</leafValues></_>
        <_>
          <internalNodes>
            0 -1 195 -4.1347817750647664e-04</internalNodes>
          <leafValues>
            4.3875792622566223e-01 -2.9749348759651184e-01</leafValues></_></weakClassifiers></_>
    <!-- stage 2 -->
    <_>
      <maxWeakCount>9</maxWeakCount>
      <stageThreshold>-1.0336654186248779e+00</stageThreshold>
      <weakClassifiers>
        <_>
          <internalNodes>
            0 -1 155 -1.4950536191463470e-01</internalNodes>
          <leafValues>
            5.2941179275512695e-01 -5.9197324514389038e-01</leafValues></_>
        <_>
          <internalNodes>
            0 -1 1 -5.3335100412368774e-01</internalNodes>
          <leafValues>
            8.0648243427276611e-01 -2.0833203196525574e-01</leafValues></_>
        <_>
          <internalNodes>
            0 -1 209 -1.1585586704313755e-02</internalNodes>
          <leafValues>
            4.3271088600158691e-01 -2.7657184004783630e-01</leafValues></_>
        <_>
          <internalNodes>
            0 -1 102 -5.5956267751753330e-03</internalNodes>
          <leafValues>
            -9.0066593885421753e-01 1.2903313338756561e-01</leafValues></_>
        <_>
          <internalNodes>
            0 -1 101 2.5282613933086395e-03</internalNodes>
          <leafValues>
            1.7546574771404266e-01 -6.7922228574752808e-01</leafValues></_>
        <_>
          <internalNodes>
            0 -1 28 -1.5806118608452380e-04</internalNodes>
          <leafValues>
            3.6119690537452698e-01 -3.3181998133659363e-01</leafValues></_>
        <_>
          <internalNodes>
            0 -1 162 -1.1814713943749666e-03</internalNodes>
          <leafValues>
            6.0310935974121094e-01 -2.0106677711009979e-01</leafValues></_>
        <_>
          <internalNodes>
            0 -1 11 1.3588631153106689e-01</internalNodes>
          <leafValues>
            -1.4539037644863129e-01 7.5196099281311035e-01</leafValues></_>
        <_>
          <internalNodes>
            0 -1 13 -5.4521426558494568e-02</internalNodes>
          <leafValues>
            7.9260438680648804e-01 -1.5994498133659363e-01</leafValues></_></weakClassifiers></_>
    <!-- stage 3 -->
    <_>
      <maxWeakCount>10</maxWeakCount>
      <stageThreshold>-8.8289886713027954e-01</stageThreshold>
      <weakClassifiers>
        <_>
          <internalNodes>
            0 -1 177 -1.1100064963102341e-01</internalNodes>
          <leafValues>
            7.8181821107864380e-01 -5.3178292512893677e-01</leafValues></_>
        <_>
          <internalNodes>
            0 -1 41 3.4343026578426361e-02</internalNodes>
          <leafValues>
            -3.6644837260246277e-01 3.5004982352256775e-01</leafValues></_>
        <_>
          <internalNodes>
            0 -1 105 4.7623272985219955e-03</internalNodes>
          <leafValues>
            -2.0801465213298798e-01 5.1174497604370117e-01</leafValues></_>
        <_>
          <internalNodes>
            0 -1 67 -1.1226366460323334e-01</internalNodes>
          <leafValues>
            6.3467752933502197e-01 -1.7832170426845551e-01</leafValues></_>
        <_>
          <internalNodes>
            0 -1 12 -1.5884060412645340e-02</internalNodes>
          <leafValues>
            6.6355025768280029e-01 -1.8714787065982819e-01</leafValues></_>
        <_>
          <internalNodes>
            0 -1 181 -2.1578770130872726e-02</internalNodes>
          <leafValues>
            5.3158152103424072e-01 -2.3127071559429169e-01</leafValues></_>
        <_>
          <internalNodes>
            0 -1 215 1.7206149641424417e-03</internalNodes>
          <leafValues>
            1.2564294040203094e-01 -9.4770693778991699e-01</leafValues></_>
        <_>
          <internalNodes>
            0 -1 80 -2.9709205031394958e-02</internalNodes>
          <leafValues>
            4.3533170223236084e-01 -2.5165921449661255e-01</leafValues></_>
        <_>
          <internalNodes>
            0 -1 148 1.9653704017400742e-02</internalNodes>
          <leafValues>
            -2.4619074165821075e-01 4.5894885063171387e-01</leafValues></_>
        <_>
          <internalNodes>
            0 -1 39 -1.0244774632155895e-02</internalNodes>
          <leafValues>
            4.9486419558525085e-01 -2.1445608139038086e-01</leafValues></_></weakClassifiers></_>
    <!-- stage 4 -->
    <_>
      <maxWeakCount>11</maxWeakCount>
      <stageThreshold>-1.2699458599090576e+00</stageThreshold>
      <weakClassifiers>
        <_>
          <internalNodes>
            0 -1 31 -6.7959928512573242e-01</internalNodes>
          <leafValues>
            7.8571426868438721e-01 -5.3416150808334351e-01</leafValues></_>
        <_>
          <internalNodes>
            0 -1 169 -1.8018279224634171e-02</internalNodes>
          <leafValues>
            5.7368427515029907e-01 -2.5007590651512146e-01</leafValues></_>
        <_>
          <internalNodes>
            0 -1 126 1.2911285273730755e-02</internalNodes>
          <leafValues>
            1.6687852144241333e-01 -8.8837230205535889e-01</leafValues></_>
        <_>
          <internalNodes>
            0 -1 127 -7.7916693408042192e-04</internalNodes>
          <leafValues>
            4.3591633439064026e-01 -2.3223289847373962e-01</leafValues></_>
        <_>
          <internalNodes>
            0 -1 171 -2.0095589570701122e-04</internalNodes>
          <leafValues>
            3.9385011792182922e-01 -2.8289872407913208e-01</leafValues></_>
        <_>
          <internalNodes>
            0 -1 138 8.9293368160724640e-02</internalNodes>
          <leafValues>
            -1.7275016009807587e-01 7.1309685707092285e-01</leafValues></_>
        <_>
          <internalNodes>
            0 -1 178 -2.5003072805702686e-03</internalNodes>
          <leafValues>
            3.5520723462104797e-01 -4.0333223342895508e-01</leafValues></_>
        <_>
          <internalNodes>
            0 -1 72 -8.2640787586569786e-03</internalNodes>
          <leafValues>
            3.8289600610733032e-01 -2.9804810881614685e-01</leafValues></_>
        <_>
          <internalNodes>
            0 -1 71 1.5308446018025279e-03</internalNodes>
          <leafValues>
            -2.1388183534145355e-01 5.0334471464157104e-01</leafValues></_>
        <_>
          <internalNodes>
            0 -1 152 -1.4424894470721483e-03</internalNodes>
          <leafValues>
            4.0776786208152771e-01 -2.8812116384506226e-01</leafValues></_>
        <_>
          <internalNodes>
            0 -1 21 -1.3776360719930381e-04</internalNodes>
          <leafValues>
            3.2646635174751282e-01 -3.1531816720962524e-01</leafValues></_></weakClassifiers></_>
    <!-- stage 5 -->
    <_>
      <maxWeakCount>14</maxWeakCount>
      <stageThreshold>-1.1557042598724365e+00</stageThreshold>
      <weakClassifiers>
        <_>
          <internalNodes>
            0 -1 170 5.5537756532430649e-02</internalNodes>
          <leafValues>
            -5.5892252922058105e-01 3.0188679695129395e-01</leafValues></_>
        <_>
          <internalNodes>
            0 -1 15 7.0604965090751648e-02</internalNodes>
          <leafValues>
            -2.1312412619590759e-01 5.6514281034469604e-01</leafValues></_>
        <_>
          <internalNodes>
            0 -1 65 4.0604896843433380e-02</internalNodes>
          <leafValues>
            -1.4672790467739105e-01 7.0617568492889404e-01</leafValues></_>
        <_>
          <internalNodes>
            0 -1 222 1.0820812312886119e-03</internalNodes>
          <leafValues>
            2.1779233217239380e-01 -4.8569211363792419e-01</leafValues></_>
        <_>
          <internalNodes>
            0 -1 179 -7.7805784530937672e-03</internalNodes>
          <leafValues>
            4.1025975346565247e-01 -2.3194517195224762e-01</leafValues></_>
        <_>
          <internalNodes>
            0 -1 135 2.5760009884834290e-02</internalNodes>
          <leafValues>
            1.7662222683429718e-01 -7.2057837247848511e-01</leafValues></_>
        <_>
          <internalNodes>
            0 -1 193 -4.0859351865947247e-03</internalNodes>
          <leafValues>
            -6.7488247156143188e-01 1.0897656530141830e-01</leafValues></_>
        <_>
          <internalNodes>
            0 -1 175 3.2280934974551201e-03</internalNodes>
          <leafValues>
            1.2946176528930664e-01 -7.6119548082351685e-01</leafValues></_>
        <_>
          <internalNodes>
            0 -1 173 -3.2432018779218197e-03</internalNodes>
          <leafValues>
            5.1098418235778809e-01 -2.2076895833015442e-01</leafValues></_>
        <_>
          <internalNodes>
            0 -1 211 -1.3544999063014984e-02</internalNodes>
          <leafValues>
            6.5412580966949463e-01 -1.5549397468566895e-01</leafValues></_>
        <_>
          <internalNodes>
            0 -1 149 1.2958532897755504e-04</internalNodes>
          <leafValues>
            -2.3042958974838257e-01 4.3229132890701294e-01</leafValues></_>
        <_>
          <internalNodes>
            0 -1 109 -1.2638258340302855e-04</internalNodes>
          <leafValues>
            3.7858372926712036e-01 -3.0869901180267334e-01</leafValues></_>
        <_>
          <internalNodes>
            0 -1 52 -1.1594712268561125e-03</internalNodes>
          <leafValues>
            5.4474502801895142e-01 -2.0103546977043152e-01</leafValues></_>
        <_>
          <internalNodes>
            0 -1 34 -8.3598427474498749e-02</internalNodes>
          <leafValues>
            5.0843751430511475e-01 -2.4398262798786163e-01</leafValues></_></weakClassifiers></_>
    <!-- stage 6 -->
    <_>
      <maxWeakCount>10</maxWeakCount>
      <stageThreshold>-8.4354174137115479e-01</stageThreshold>
      <weakClassifiers>
        <_>
          <internalNodes>
            0 -1 103 8.5791364312171936e-02</internalNodes>
          <leafValues>
            -5.1007753610610962e-01 5.2727270126342773e-01</leafValues></_>
        <_>
          <internalNodes>
            0 -1 202 1.5693187713623047e-02</internalNodes>
          <leafValues>
            -2.6478019356727600e-01 6.1523061990737915e-01</leafValues></_>
        <_>
          <internalNodes>
            0 -1 216 -2.8684963472187519e-03</internalNodes>
          <leafValues>
            -6.3681632280349731e-01 2.0931488275527954e-01</leafValues></_>
        <_>
          <internalNodes>
            0 -1 160 -9.7041903063654900e-04</internalNodes>
          <leafValues>
            4.0539470314979553e-01 -3.1028977036476135e-01</leafValues></_>
        <_>
          <internalNodes>
            0 -1 114 3.5516623407602310e-02</internalNodes>
          <leafValues>
            -1.2206062674522400e-01 7.6874482631683350e-01</leafValues></_>
        <_>
          <internalNodes>
            0 -1 130 -1.0781382443383336e-03</internalNodes>
          <leafValues>
            4.4002646207809448e-01 -2.2867439687252045e-01</leafValues></_>
        <_>
          <internalNodes>
            0 -1 98 -3.2082200050354004e-02</internalNodes>
          <leafValues>
            5.1741355657577515e-01 -1.8418835103511810e-01</leafValues></_>
        <_>
          <internalNodes>
            0 -1 55 1.8505156040191650e-02</internalNodes>
          <leafValues>
            -1.8765527009963989e-01 5.2750021219253540e-01</leafValues></_>
        <_>
          <internalNodes>
            0 -1 9 -1.5954339504241943e-01</internalNodes>
          <leafValues>
            5.2365934848785400e-01 -2.2879484295845032e-01</leafValues></_>
        <_>
          <internalNodes>
            0 -1 134 -9.8480191081762314e-04</internalNodes>
          <leafValues>
            3.1496345996856689e-01 -2.9454791545867920e-01</leafValues></_></weakClassifiers></_>
    <!-- stage 7 -->
    <_>
      <maxWeakCount>13</maxWeakCount>
      <stageThreshold>-1.3765078783035278e+00</stageThreshold>
      <weakClassifiers>
        <_>
          <internalNodes>
            0 -1 79 2.3207917809486389e-02</internalNodes>
          <leafValues>
            -5.9074735641479492e-01 2.3188406229019165e-01</leafValues></_>
        <_>
          <internalNodes>
            0 -1 217 -7.4371178634464741e-03</internalNodes>
          <leafValues>
            4.1469532251358032e-01 -3.3705386519432068e-01</leafValues></_>
        <_>
          <internalNodes>
            0 -1 89 2.3308034986257553e-02</internalNodes>
          <leafValues>
            1.6329644620418549e-01 -6.5002143383026123e-01</leafValues></_>
        <_>
          <internalNodes>
            0 -1 85 2.8216323698870838e-04</internalNodes>
          <leafValues>
            -1.9035279750823975e-01 5.0217527151107788e-01</leafValues></_>
        <_>
          <internalNodes>
            0 -1 84 -4.4404008076526225e-04</internalNodes>
          <leafValues>
            4.9356931447982788e-01 -2.5383958220481873e-01</leafValues></_>
        <_>
          <internalNodes>
            0 -1 33 -1.8437926471233368e-01</internalNodes>
          <leafValues>
            6.4538568258285522e-01 -1.3686673343181610e-01</leafValues></_>
        <_>
          <internalNodes>
            0 -1 47 -1.8440445419400930e-03</internalNodes>
          <leafValues>
            4.9559724330902100e-01 -2.1362234652042389e-01</leafValues></_>
        <_>
          <internalNodes>
            0 -1 221 -3.5979084204882383e-03</internalNodes>
          <leafValues>
            -9.3106335401535034e-01 1.2087855488061905e-01</leafValues></_>
        <_>
          <internalNodes>
            0 -1 185 -7.5322929769754410e-03</internalNodes>
          <leafValues>
            5.5696511268615723e-01 -2.5192460417747498e-01</leafValues></_>
        <_>
          <internalNodes>
            0 -1 120 -1.3591535389423370e-03</internalNodes>
          <leafValues>
            4.5796537399291992e-01 -2.1174405515193939e-01</leafValues></_>
        <_>
          <internalNodes>
            0 -1 86 7.6872911304235458e-03</internalNodes>
          <leafValues>
            1.8252834677696228e-01 -6.1349529027938843e-01</leafValues></_>
        <_>
          <internalNodes>
            0 -1 83 1.1088820174336433e-03</internalNodes>
          <leafValues>
            -2.4592909216880798e-01 4.9036231637001038e-01</leafValues></_>
        <_>
          <internalNodes>
            0 -1 106 -4.9292754381895065e-02</internalNodes>
          <leafValues>
            6.6798156499862671e-01 -1.4742222428321838e-01</leafValues></_></weakClassifiers></_>
    <!-- stage 8 -->
    <_>
      <maxWeakCount>10</maxWeakCount>
      <stageThreshold>-1.0086991786956787e+00</stageThreshold>
      <weakClassifiers>
        <_>
          <internalNodes>
            0 -1 78 -4.0513497591018677e-01</internalNodes>
          <leafValues>
            3.5714286565780640e-01 -5.3571426868438721e-01</leafValues></_>
        <_>
          <internalNodes>
            0 -1 61 -6.9135203957557678e-03</internalNodes>
          <leafValues>
            -8.4944713115692139e-01 9.9944479763507843e-02</leafValues></_>
        <_>
          <internalNodes>
            0 -1 75 4.9880221486091614e-03</internalNodes>
          <leafValues>
            -2.5899797677993774e-01 4.2493283748626709e-01</leafValues></_>
        <_>
          <internalNodes>
            0 -1 70 -2.6096723973751068e-02</internalNodes>
          <leafValues>
            -6.2574893236160278e-01 2.2126337885856628e-01</leafValues></_>
        <_>
          <internalNodes>
            0 -1 40 7.8137908130884171e-03</internalNodes>
          <leafValues>
            -2.3069049417972565e-01 5.8161509037017822e-01</leafValues></_>
        <_>
          <internalNodes>
            0 -1 43 -4.3630460277199745e-03</internalNodes>
          <leafValues>
            -6.5890818834304810e-01 1.9734270870685577e-01</leafValues></_>
        <_>
          <internalNodes>
            0 -1 69 4.1991804027929902e-04</internalNodes>
          <leafValues>
            -2.6400700211524963e-01 4.8468095064163208e-01</leafValues></_>
        <_>
          <internalNodes>
            0 -1 93 3.5262867808341980e-02</internalNodes>
          <leafValues>
            1.8104733526706696e-01 -6.1684584617614746e-01</leafValues></_>
        <_>
          <internalNodes>
            0 -1 3 1.7880749655887485e-03</internalNodes>
          <leafValues>
            1.2927451729774475e-01 -7.4162077903747559e-01</leafValues></_>
        <_>
          <internalNodes>
            0 -1 144 -1.5675236936658621e-03</internalNodes>
          <leafValues>
            3.7030929327011108e-01 -2.8270101547241211e-01</leafValues></_></weakClassifiers></_>
    <!-- stage 9 -->
    <_>
      <maxWeakCount>9</maxWeakCount>
      <stageThreshold>-1.0565465688705444e+00</stageThreshold>
      <weakClassifiers>
        <_>
          <internalNodes>
            0 -1 158 -1.3044582307338715e-01</internalNodes>
          <leafValues>
            4.6666666865348816e-01 -5.3600001335144043e-01</leafValues></_>
        <_>
          <internalNodes>
            0 -1 16 -2.3899094760417938e-01</internalNodes>
          <leafValues>
            -9.1270077228546143e-01 8.7088614702224731e-02</leafValues></_>
        <_>
          <internalNodes>
            0 -1 154 -1.1195583269000053e-02</internalNodes>
          <leafValues>
            -5.1067727804183960e-01 1.9238132238388062e-01</leafValues></_>
        <_>
          <internalNodes>
            0 -1 42 -3.3498066477477551e-03</internalNodes>
          <leafValues>
            -8.5019749402999878e-01 1.2233698368072510e-01</leafValues></_>
        <_>
          <internalNodes>
            0 -1 143 2.5428749620914459e-02</internalNodes>
          <leafValues>
            -1.3564519584178925e-01 7.7759778499603271e-01</leafValues></_>
        <_>
          <internalNodes>
            0 -1 194 3.2827831804752350e-02</internalNodes>
          <leafValues>
            -2.1294766664505005e-01 5.1818656921386719e-01</leafValues></_>
        <_>
          <internalNodes>
            0 -1 51 4.6838976442813873e-02</internalNodes>
          <leafValues>
            -1.9171324372291565e-01 7.1450436115264893e-01</leafValues></_>
        <_>
          <internalNodes>
            0 -1 125 2.5562424212694168e-02</internalNodes>
          <leafValues>
            -2.7151614427566528e-01 3.8752782344818115e-01</leafValues></_>
        <_>
          <internalNodes>
            0 -1 108 2.0266130566596985e-02</internalNodes>
          <leafValues>
            1.3593520224094391e-01 -7.6957523822784424e-01</leafValues></_></weakClassifiers></_>
    <!-- stage 10 -->
    <_>
      <maxWeakCount>16</maxWeakCount>
      <stageThreshold>-9.7666931152343750e-01</stageThreshold>
      <weakClassifiers>
        <_>
          <internalNodes>
            0 -1 22 -1.5627237735316157e-04</internalNodes>
          <leafValues>
            -8.0851063132286072e-02 -6.0430109500885010e-01</leafValues></_>
        <_>
          <internalNodes>
            0 -1 220 1.7144018784165382e-03</internalNodes>
          <leafValues>
            7.9195231199264526e-02 -6.7295002937316895e-01</leafValues></_>
        <_>
          <internalNodes>
            0 -1 172 -4.1036494076251984e-02</internalNodes>
          <leafValues>
            -7.9154562950134277e-01 8.7737359106540680e-02</leafValues></_>
        <_>
          <internalNodes>
            0 -1 17 3.5639295820146799e-03</internalNodes>
          <leafValues>
            1.1755293607711792e-01 -7.6927614212036133e-01</leafValues></_>
        <_>
          <internalNodes>
            0 -1 139 9.9056269973516464e-03</internalNodes>
          <leafValues>
            1.3060188293457031e-01 -6.6181367635726929e-01</leafValues></_>
        <_>
          <internalNodes>
            0 -1 97 1.1542940046638250e-03</internalNodes>
          <leafValues>
            -2.2977092862129211e-01 3.9546388387680054e-01</leafValues></_>
        <_>
          <internalNodes>
            0 -1 141 -5.7656678836792707e-04</internalNodes>
          <leafValues>
            3.9524719119071960e-01 -2.1501474082469940e-01</leafValues></_>
        <_>
          <internalNodes>
            0 -1 132 7.6820505782961845e-03</internalNodes>
          <leafValues>
            -1.5292768180370331e-01 6.1914145946502686e-01</leafValues></_>
        <_>
          <internalNodes>
            0 -1 20 -1.9374564290046692e-02</internalNodes>
          <leafValues>
            -7.9127937555313110e-01 1.0472337156534195e-01</leafValues></_>
        <_>
          <internalNodes>
            0 -1 208 -5.7459212839603424e-03</internalNodes>
          <leafValues>
            5.2870231866836548e-01 -1.9064190983772278e-01</leafValues></_>
        <_>
          <internalNodes>
            0 -1 73 -1.9075224176049232e-02</internalNodes>
          <leafValues>
            6.2531995773315430e-01 -1.5359190106391907e-01</leafValues></_>
        <_>
          <internalNodes>
            0 -1 29 -6.6892122849822044e-03</internalNodes>
          <leafValues>
            -9.1425293684005737e-01 1.0506245493888855e-01</leafValues></_>
        <_>
          <internalNodes>
            0 -1 26 7.9475634265691042e-04</internalNodes>
          <leafValues>
            -2.4344579875469208e-01 3.5633864998817444e-01</leafValues></_>
        <_>
          <internalNodes>
            0 -1 7 -1.5065649058669806e-03</internalNodes>
          <leafValues>
            -9.2018318176269531e-01 9.2218130826950073e-02</leafValues></_>
        <_>
          <internalNodes>
            0 -1 38 2.3250095546245575e-03</internalNodes>
          <leafValues>
            -1.9066429138183594e-01 5.0626736879348755e-01</leafValues></_>
        <_>
          <internalNodes>
            0 -1 199 2.1014767698943615e-03</internalNodes>
          <leafValues>
            -3.2366430759429932e-01 2.8722831606864929e-01</leafValues></_></weakClassifiers></_>
    <!-- stage 11 -->
    <_>
      <maxWeakCount>12</maxWeakCount>
      <stageThreshold>-1.1953020095825195e+00</stageThreshold>
      <weakClassifiers>
        <_>
          <internalNodes>
            0 -1 62 5.1049053668975830e-02</internalNodes>
          <leafValues>
            -5.1638066768646240e-01 5.2542370557785034e-01</leafValues></_>
        <_>
          <internalNodes>
            0 -1 66 -6.5502181649208069e-02</internalNodes>
          <leafValues>
            4.3258774280548096e-01 -3.4915074706077576e-01</leafValues></_>
        <_>
          <internalNodes>
            0 -1 140 -6.1405971646308899e-02</internalNodes>
          <leafValues>
            7.3135697841644287e-01 -1.1736279726028442e-01</leafValues></_>
        <_>
          <internalNodes>
            0 -1 174 -4.8692902782931924e-04</internalNodes>
          <leafValues>
            4.5879057049751282e-01 -2.0682896673679352e-01</leafValues></_>
        <_>
          <internalNodes>
            0 -1 119 2.2211719304323196e-02</internalNodes>
          <leafValues>
            -1.7820152640342712e-01 5.8189964294433594e-01</leafValues></_>
        <_>
          <internalNodes>
            0 -1 111 -2.2246487787924707e-04</internalNodes>
          <leafValues>
            4.0889760851860046e-01 -2.4012722074985504e-01</leafValues></_>
        <_>
          <internalNodes>
            0 -1 99 -3.0199604225344956e-04</internalNodes>
          <leafValues>
            4.2261523008346558e-01 -2.2778403759002686e-01</leafValues></_>
        <_>
          <internalNodes>
            0 -1 59 -2.8548002592287958e-04</internalNodes>
          <leafValues>
            4.3283054232597351e-01 -2.2905193269252777e-01</leafValues></_>
        <_>
          <internalNodes>
            0 -1 2 -2.4640054907649755e-03</internalNodes>
          <leafValues>
            -8.1190037727355957e-01 1.5839387476444244e-01</leafValues></_>
        <_>
          <internalNodes>
            0 -1 124 5.7291388511657715e-03</internalNodes>
          <leafValues>
            -2.4760621786117554e-01 4.3854826688766479e-01</leafValues></_>
        <_>
          <internalNodes>
            0 -1 94 3.1274385750293732e-02</internalNodes>
          <leafValues>
            1.4825394749641418e-01 -8.7600076198577881e-01</leafValues></_>
        <_>
          <internalNodes>
            0 -1 159 -1.4310854487121105e-02</internalNodes>
          <leafValues>
            -6.0388964414596558e-01 1.6014504432678223e-01</leafValues></_></weakClassifiers></_>
    <!-- stage 12 -->
    <_>
      <maxWeakCount>12</maxWeakCount>
      <stageThreshold>-1.0770981311798096e+00</stageThreshold>
      <weakClassifiers>
        <_>
          <internalNodes>
            0 -1 96 5.3298095008358359e-04</internalNodes>
          <leafValues>
            -5.6020945310592651e-01 1.6535432636737823e-01</leafValues></_>
        <_>
          <internalNodes>
            0 -1 200 -1.2005488388240337e-02</internalNodes>
          <leafValues>
            3.0149942636489868e-01 -3.5878458619117737e-01</leafValues></_>
        <_>
          <internalNodes>
            0 -1 206 -2.5513656437397003e-03</internalNodes>
          <leafValues>
            -7.7057993412017822e-01 1.3525336980819702e-01</leafValues></_>
        <_>
          <internalNodes>
            0 -1 14 -4.4060912914574146e-03</internalNodes>
          <leafValues>
            -7.2645998001098633e-01 1.5208922326564789e-01</leafValues></_>
        <_>
          <internalNodes>
            0 -1 81 -1.9065883010625839e-02</internalNodes>
          <leafValues>
            -7.6593452692031860e-01 8.5258029401302338e-02</leafValues></_>
        <_>
          <internalNodes>
            0 -1 46 -1.0819699382409453e-03</internalNodes>
          <leafValues>
            4.6330973505973816e-01 -2.1665661036968231e-01</leafValues></_>
        <_>
          <internalNodes>
            0 -1 117 -1.7275079153478146e-03</internalNodes>
          <leafValues>
            4.7850847244262695e-01 -1.9717891514301300e-01</leafValues></_>
        <_>
          <internalNodes>
            0 -1 167 1.5260688960552216e-03</internalNodes>
          <leafValues>
            1.7563867568969727e-01 -6.9041097164154053e-01</leafValues></_>
        <_>
          <internalNodes>
            0 -1 63 1.2269158614799380e-03</internalNodes>
          <leafValues>
            -2.6721405982971191e-01 3.8303598761558533e-01</leafValues></_>
        <_>
          <internalNodes>
            0 -1 23 -2.2591078653931618e-02</internalNodes>
          <leafValues>
            5.3051251173019409e-01 -1.9360058009624481e-01</leafValues></_>
        <_>
          <internalNodes>
            0 -1 166 1.0456405580043793e-03</internalNodes>
          <leafValues>
            -1.6772817075252533e-01 5.1900452375411987e-01</leafValues></_>
        <_>
          <internalNodes>
            0 -1 146 2.5063112843781710e-04</internalNodes>
          <leafValues>
            -2.6244932413101196e-01 3.9230355620384216e-01</leafValues></_></weakClassifiers></_>
    <!-- stage 13 -->
    <_>
      <maxWeakCount>12</maxWeakCount>
      <stageThreshold>-1.1925933361053467e+00</stageThreshold>
      <weakClassifiers>
        <_>
          <internalNodes>
            0 -1 210 -5.9029285330325365e-04</internalNodes>
          <leafValues>
            4.1841003112494946e-03 -6.5292841196060181e-01</leafValues></_>
        <_>
          <internalNodes>
            0 -1 214 1.7791322898119688e-04</internalNodes>
          <leafValues>
            -3.5270264744758606e-01 3.9283484220504761e-01</leafValues></_>
        <_>
          <internalNodes>
            0 -1 87 -6.2142312526702881e-04</internalNodes>
          <leafValues>
            5.7098007202148438e-01 -1.9008333981037140e-01</leafValues></_>
        <_>
          <internalNodes>
            0 -1 113 1.3658870011568069e-03</internalNodes>
          <leafValues>
            -2.4518771469593048e-01 4.2512241005897522e-01</leafValues></_>
        <_>
          <internalNodes>
            0 -1 145 4.4684972614049911e-02</internalNodes>
          <leafValues>
            -1.2087131291627884e-01 8.4400457143783569e-01</leafValues></_>
        <_>
          <internalNodes>
            0 -1 137 -1.1622679885476828e-03</internalNodes>
          <leafValues>
            3.9500814676284790e-01 -2.8405046463012695e-01</leafValues></_>
        <_>
          <internalNodes>
            0 -1 54 -2.7948399656452239e-04</internalNodes>
          <leafValues>
            4.2978680133819580e-01 -2.4063852429389954e-01</leafValues></_>
        <_>
          <internalNodes>
            0 -1 176 -1.0362036526203156e-02</internalNodes>
          <leafValues>
            5.7257956266403198e-01 -1.7352819442749023e-01</leafValues></_>
        <_>
          <internalNodes>
            0 -1 112 1.1660013347864151e-02</internalNodes>
          <leafValues>
            1.7471438646316528e-01 -7.8914153575897217e-01</leafValues></_>
        <_>
          <internalNodes>
            0 -1 48 2.7931755175814033e-04</internalNodes>
          <leafValues>
            -2.9497542977333069e-01 4.3806713819503784e-01</leafValues></_>
        <_>
          <internalNodes>
            0 -1 212 4.8824930563569069e-03</internalNodes>
          <leafValues>
            1.4932744204998016e-01 -7.4228602647781372e-01</leafValues></_>
        <_>
          <internalNodes>
            0 -1 129 -1.9226326548960060e-04</internalNodes>
          <leafValues>
            3.7278214097023010e-01 -3.1103786826133728e-01</leafValues></_></weakClassifiers></_>
    <!-- stage 14 -->
    <_>
      <maxWeakCount>8</maxWeakCount>
      <stageThreshold>-1.0584417581558228e+00</stageThreshold>
      <weakClassifiers>
        <_>
          <internalNodes>
            0 -1 91 9.6666544675827026e-02</internalNodes>
          <leafValues>
            -5.6549519300460815e-01 7.2972971200942993e-01</leafValues></_>
        <_>
          <internalNodes>
            0 -1 76 2.3684261832386255e-03</internalNodes>
          <leafValues>
            2.8464919328689575e-01 -7.3213440179824829e-01</leafValues></_>
        <_>
          <internalNodes>
            0 -1 60 1.3910385314375162e-03</internalNodes>
          <leafValues>
            2.5238263607025146e-01 -6.5632003545761108e-01</leafValues></_>
        <_>
          <internalNodes>
            0 -1 205 -8.3168275887146592e-04</internalNodes>
          <leafValues>
            -6.1589574813842773e-01 2.3650048673152924e-01</leafValues></_>
        <_>
          <internalNodes>
            0 -1 88 -9.2258043587207794e-03</internalNodes>
          <leafValues>
            9.4438260793685913e-01 -1.5719123184680939e-01</leafValues></_>
        <_>
          <internalNodes>
            0 -1 150 -1.2100525200366974e-03</internalNodes>
          <leafValues>
            5.6400984525680542e-01 -2.6002028584480286e-01</leafValues></_>
        <_>
          <internalNodes>
            0 -1 25 -2.4287272989749908e-01</internalNodes>
          <leafValues>
            9.1314089298248291e-01 -1.3487368822097778e-01</leafValues></_>
        <_>
          <internalNodes>
            0 -1 77 1.1410985607653856e-03</internalNodes>
          <leafValues>
            2.2267511487007141e-01 -8.0035626888275146e-01</leafValues></_></weakClassifiers></_>
    <!-- stage 15 -->
    <_>
      <maxWeakCount>8</maxWeakCount>
      <stageThreshold>-1.3889986276626587e+00</stageThreshold>
      <weakClassifiers>
        <_>
          <internalNodes>
            0 -1 128 2.7454018592834473e-02</internalNodes>
          <leafValues>
            -6.2851780652999878e-01 2.0958083868026733e-01</leafValues></_>
        <_>
          <internalNodes>
            0 -1 18 5.6124082766473293e-04</internalNodes>
          <leafValues>
            2.9117307066917419e-01 -5.2254444360733032e-01</leafValues></_>
        <_>
          <internalNodes>
            0 -1 219 1.0601856047287583e-03</internalNodes>
          <leafValues>
            1.4478693902492523e-01 -7.2355860471725464e-01</leafValues></_>
        <_>
          <internalNodes>
            0 -1 190 3.2156356610357761e-04</internalNodes>
          <leafValues>
            -2.7943468093872070e-01 5.0805276632308960e-01</leafValues></_>
        <_>
          <internalNodes>
            0 -1 142 -1.2395067606121302e-03</internalNodes>
          <leafValues>
            4.8244911432266235e-01 -2.2811681032180786e-01</leafValues></_>
        <_>
          <internalNodes>
            0 -1 196 6.0312380082905293e-04</internalNodes>
          <leafValues>
            -2.4361038208007812e-01 5.0731831789016724e-01</leafValues></_>
        <_>
          <internalNodes>
            0 -1 131 3.8026790134608746e-03</internalNodes>
          <leafValues>
            -2.4215948581695557e-01 5.3884619474411011e-01</leafValues></_>
        <_>
          <internalNodes>
            0 -1 188 -8.5397099610418081e-04</internalNodes>
          <leafValues>
            5.5116063356399536e-01 -2.2750063240528107e-01</leafValues></_></weakClassifiers></_>
    <!-- stage 16 -->
    <_>
      <maxWeakCount>9</maxWeakCount>
      <stageThreshold>-1.2327413558959961e+00</stageThreshold>
      <weakClassifiers>
        <_>
          <internalNodes>
            0 -1 168 1.0937460698187351e-02</internalNodes>
          <leafValues>
            -6.3047617673873901e-01 1.7714285850524902e-01</leafValues></_>
        <_>
          <internalNodes>
            0 -1 44 -1.1405746452510357e-02</internalNodes>
          <leafValues>
            5.6012654304504395e-01 -2.9899540543556213e-01</leafValues></_>
        <_>
          <internalNodes>
            0 -1 5 -5.5091263493523002e-04</internalNodes>
          <leafValues>
            -6.0078477859497070e-01 2.5727677345275879e-01</leafValues></_>
        <_>
          <internalNodes>
            0 -1 58 5.5596944876015186e-03</internalNodes>
          <leafValues>
            -2.5471419095993042e-01 5.2328479290008545e-01</leafValues></_>
        <_>
          <internalNodes>
            0 -1 198 2.4091475643217564e-03</internalNodes>
          <leafValues>
            1.7419506609439850e-01 -7.6113671064376831e-01</leafValues></_>
        <_>
          <internalNodes>
            0 -1 74 7.9727536067366600e-03</internalNodes>
          <leafValues>
            -2.1807675063610077e-01 5.9353870153427124e-01</leafValues></_>
        <_>
          <internalNodes>
            0 -1 30 -4.8098387196660042e-03</internalNodes>
          <leafValues>
            4.8926809430122375e-01 -3.4749722480773926e-01</leafValues></_>
        <_>
          <internalNodes>
            0 -1 189 4.0714428760111332e-03</internalNodes>
          <leafValues>
            -2.2581119835376740e-01 6.1083889007568359e-01</leafValues></_>
        <_>
          <internalNodes>
            0 -1 4 -1.0252142325043678e-02</internalNodes>
          <leafValues>
            3.3366063237190247e-01 -4.4919770956039429e-01</leafValues></_></weakClassifiers></_>
    <!-- stage 17 -->
    <_>
      <maxWeakCount>13</maxWeakCount>
      <stageThreshold>-1.0587435960769653e+00</stageThreshold>
      <weakClassifiers>
        <_>
          <internalNodes>
            0 -1 45 6.7296251654624939e-02</internalNodes>
          <leafValues>
            -5.1777434349060059e-01 6.6037738323211670e-01</leafValues></_>
        <_>
          <internalNodes>
            0 -1 161 9.1121010482311249e-03</internalNodes>
          <leafValues>
            -4.3590569496154785e-01 2.9723426699638367e-01</leafValues></_>
        <_>
          <internalNodes>
            0 -1 90 -4.1440255939960480e-02</internalNodes>
          <leafValues>
            -5.0248062610626221e-01 2.7136904001235962e-01</leafValues></_>
        <_>
          <internalNodes>
            0 -1 133 8.4588697063736618e-05</internalNodes>
          <leafValues>
            -2.1279877424240112e-01 5.0992131233215332e-01</leafValues></_>
        <_>
          <internalNodes>
            0 -1 207 2.0142868161201477e-03</internalNodes>
          <leafValues>
            -2.5751718878746033e-01 4.2032951116561890e-01</leafValues></_>
        <_>
          <internalNodes>
            0 -1 37 1.7662666738033295e-02</internalNodes>
          <leafValues>
            1.0658749938011169e-01 -1.</leafValues></_>
        <_>
          <internalNodes>
            0 -1 151 2.3080576211214066e-03</internalNodes>
          <leafValues>
            2.5155547261238098e-01 -4.8874559998512268e-01</leafValues></_>
        <_>
          <internalNodes>
            0 -1 107 2.3782016709446907e-02</internalNodes>
          <leafValues>
            -1.7251574993133545e-01 7.2154104709625244e-01</leafValues></_>
        <_>
          <internalNodes>
            0 -1 180 6.1729829758405685e-04</internalNodes>
          <leafValues>
            -3.4887415170669556e-01 3.4401783347129822e-01</leafValues></_>
        <_>
          <internalNodes>
            0 -1 36 -3.7012200802564621e-02</internalNodes>
          <leafValues>
            4.7774916887283325e-01 -2.2826188802719116e-01</leafValues></_>
        <_>
          <internalNodes>
            0 -1 201 -7.9427463933825493e-03</internalNodes>
          <leafValues>
            6.7586249113082886e-01 -1.7058779299259186e-01</leafValues></_>
        <_>
          <internalNodes>
            0 -1 183 -3.1562536023557186e-03</internalNodes>
          <leafValues>
            8.4433501958847046e-01 -1.2495623528957367e-01</leafValues></_>
        <_>
          <internalNodes>
            0 -1 104 -4.6607577241957188e-03</internalNodes>
          <leafValues>
            -6.0513126850128174e-01 1.9120828807353973e-01</leafValues></_></weakClassifiers></_>
    <!-- stage 18 -->
    <_>
      <maxWeakCount>13</maxWeakCount>
      <stageThreshold>-1.0816730260848999e+00</stageThreshold>
      <weakClassifiers>
        <_>
          <internalNodes>
            0 -1 24 3.3120032399892807e-02</internalNodes>
          <leafValues>
            -2.3146067559719086e-01 -7.7254903316497803e-01</leafValues></_>
        <_>
          <internalNodes>
            0 -1 136 1.1140393093228340e-02</internalNodes>
          <leafValues>
            4.2741205543279648e-02 -8.3909708261489868e-01</leafValues></_>
        <_>
          <internalNodes>
            0 -1 122 6.4144246280193329e-03</internalNodes>
          <leafValues>
            1.0241983085870743e-01 -8.7721723318099976e-01</leafValues></_>
        <_>
          <internalNodes>
            0 -1 213 -1.1377725750207901e-03</internalNodes>
          <leafValues>
            -6.6641223430633545e-01 8.3330132067203522e-02</leafValues></_>
        <_>
          <internalNodes>
            0 -1 121 9.9490992724895477e-03</internalNodes>
          <leafValues>
            1.2505105137825012e-01 -6.6815030574798584e-01</leafValues></_>
        <_>
          <internalNodes>
            0 -1 165 -3.8662116276100278e-04</internalNodes>
          <leafValues>
            3.8848799467086792e-01 -2.4536217749118805e-01</leafValues></_>
        <_>
          <internalNodes>
            0 -1 147 -1.3138782232999802e-02</internalNodes>
          <leafValues>
            -5.3929644823074341e-01 1.6341452300548553e-01</leafValues></_>
        <_>
          <internalNodes>
            0 -1 163 -1.3654548674821854e-03</internalNodes>
          <leafValues>
            4.3479984998703003e-01 -2.3257985711097717e-01</leafValues></_>
        <_>
          <internalNodes>
            0 -1 115 -2.8293274343013763e-02</internalNodes>
          <leafValues>
            -8.4420120716094971e-01 1.2142153084278107e-01</leafValues></_>
        <_>
          <internalNodes>
            0 -1 186 -3.6521634319797158e-04</internalNodes>
          <leafValues>
            3.0818510055541992e-01 -3.0994027853012085e-01</leafValues></_>
        <_>
          <internalNodes>
            0 -1 156 -8.0322555731981993e-04</internalNodes>
          <leafValues>
            4.2788478732109070e-01 -2.0934042334556580e-01</leafValues></_>
        <_>
          <internalNodes>
            0 -1 191 -9.0513836767058820e-05</internalNodes>
          <leafValues>
            3.8094168901443481e-01 -2.6631543040275574e-01</leafValues></_>
        <_>
          <internalNodes>
            0 -1 49 4.0101341903209686e-02</internalNodes>
          <leafValues>
            -1.5619166195392609e-01 6.2820720672607422e-01</leafValues></_></weakClassifiers></_>
    <!-- stage 19 -->
    <_>
      <maxWeakCount>17</maxWeakCount>
      <stageThreshold>-9.7162252664566040e-01</stageThreshold>
      <weakClassifiers>
        <_>
          <internalNodes>
            0 -1 118 1.1257705092430115e-01</internalNodes>
          <leafValues>
            -4.6412885189056396e-01 1.</leafValues></_>
        <_>
          <internalNodes>
            0 -1 95 -1.6519762575626373e-02</internalNodes>
          <leafValues>
            -8.9006769657135010e-01 5.1607672125101089e-02</leafValues></_>
        <_>
          <internalNodes>
            0 -1 164 -4.1789375245571136e-03</internalNodes>
          <leafValues>
            4.9080222845077515e-01 -1.4418096840381622e-01</leafValues></_>
        <_>
          <internalNodes>
            0 -1 218 -8.6353588849306107e-03</internalNodes>
          <leafValues>
            -7.8016722202301025e-01 9.7657479345798492e-02</leafValues></_>
        <_>
          <internalNodes>
            0 -1 100 -1.4516212977468967e-03</internalNodes>
          <leafValues>
            3.8657993078231812e-01 -2.2016887366771698e-01</leafValues></_>
        <_>
          <internalNodes>
            0 -1 10 3.8810145109891891e-02</internalNodes>
          <leafValues>
            -1.7508980631828308e-01 4.8922803997993469e-01</leafValues></_>
        <_>
          <internalNodes>
            0 -1 35 -6.6712740808725357e-03</internalNodes>
          <leafValues>
            3.8507607579231262e-01 -2.5983533263206482e-01</leafValues></_>
        <_>
          <internalNodes>
            0 -1 53 -1.1325730942189693e-02</internalNodes>
          <leafValues>
            -6.6314470767974854e-01 1.3028323650360107e-01</leafValues></_>
        <_>
          <internalNodes>
            0 -1 203 -5.8802979765459895e-04</internalNodes>
          <leafValues>
            3.6318713426589966e-01 -2.3281928896903992e-01</leafValues></_>
        <_>
          <internalNodes>
            0 -1 187 -1.8062107264995575e-02</internalNodes>
          <leafValues>
            6.1214178800582886e-01 -1.4577719569206238e-01</leafValues></_>
        <_>
          <internalNodes>
            0 -1 19 -1.5516881830990314e-03</internalNodes>
          <leafValues>
            4.1544458270072937e-01 -2.2426655888557434e-01</leafValues></_>
        <_>
          <internalNodes>
            0 -1 110 1.4784565567970276e-01</internalNodes>
          <leafValues>
            -1.9691459834575653e-01 4.9836033582687378e-01</leafValues></_>
        <_>
          <internalNodes>
            0 -1 57 -2.6408936828374863e-02</internalNodes>
          <leafValues>
            4.8845019936561584e-01 -1.9190220534801483e-01</leafValues></_>
        <_>
          <internalNodes>
            0 -1 204 4.6541838673874736e-04</internalNodes>
          <leafValues>
            -2.4324201047420502e-01 4.0620934963226318e-01</leafValues></_>
        <_>
          <internalNodes>
            0 -1 116 -1.9556148909032345e-03</internalNodes>
          <leafValues>
            4.7158163785934448e-01 -2.0776098966598511e-01</leafValues></_>
        <_>
          <internalNodes>
            0 -1 0 -4.9250861629843712e-03</internalNodes>
          <leafValues>
            3.6755955219268799e-01 -2.6169452071189880e-01</leafValues></_>
        <_>
          <internalNodes>
            0 -1 27 4.3482050299644470e-02</internalNodes>
          <leafValues>
            -2.0547416806221008e-01 5.5094313621520996e-01</leafValues></_></weakClassifiers></_></stages>
  <features>
    <_>
      <rects>
        <_>
          0 0 8 4 -1.</_>
        <_>
          0 0 4 2 2.</_>
        <_>
          4 2 4 2 2.</_></rects>
      <tilted>0</tilted></_>
    <_>
      <rects>
        <_>
          0 0 12 21 -1.</_>
        <_>
          4 7 4 7 9.</_></rects>
      <tilted>0</tilted></_>
    <_>
      <rects>
        <_>
          0 1 4 2 -1.</_>
        <_>
          1 1 2 2 2.</_></rects>
      <tilted>0</tilted></_>
    <_>
      <rects>
        <_>
          0 2 3 2 -1.</_>
        <_>
          1 2 1 2 3.</_></rects>
      <tilted>0</tilted></_>
    <_>
      <rects>
        <_>
          0 2 20 3 -1.</_>
        <_>
          5 2 10 3 2.</_></rects>
      <tilted>0</tilted></_>
    <_>
      <rects>
        <_>
          0 3 1 3 -1.</_>
        <_>
          0 4 1 1 3.</_></rects>
      <tilted>0</tilted></_>
    <_>
      <rects>
        <_>
          0 3 20 6 -1.</_>
        <_>
          5 3 10 6 2.</_></rects>
      <tilted>0</tilted></_>
    <_>
      <rects>
        <_>
          0 5 1 2 -1.</_>
        <_>
          0 6 1 1 2.</_></rects>
      <tilted>0</tilted></_>
    <_>
      <rects>
        <_>
          0 6 16 13 -1.</_>
        <_>
          4 6 8 13 2.</_></rects>
      <tilted>0</tilted></_>
    <_>
      <rects>
        <_>
          0 6 20 11 -1.</_>
        <_>
          5 6 10 11 2.</_></rects>
      <tilted>0</tilted></_>
    <_>
      <rects>
        <_>
          0 7 6 12 -1.</_>
        <_>
          3 7 3 12 2.</_></rects>
      <tilted>0</tilted></_>
    <_>
      <rects>
        <_>
          0 7 16 10 -1.</_>
        <_>
          4 7 8 10 2.</_></rects>
      <tilted>0</tilted></_>
    <_>
      <rects>
        <_>
          0 8 4 4 -1.</_>
        <_>
          2 8 2 4 2.</_></rects>
      <tilted>0</tilted></_>
    <_>
      <rects>
        <_>
          0 8 6 11 -1.</_>
        <_>
          3 8 3 11 2.</_></rects>
      <tilted>0</tilted></_>
    <_>
      <rects>
        <_>
          0 9 1 8 -1.</_>
        <_>
          0 11 1 4 2.</_></rects>
      <tilted>0</tilted></_>
    <_>
      <rects>
        <_>
          0 10 12 10 -1.</_>
        <_>
          3 10 6 10 2.</_></rects>
      <tilted>0</tilted></_>
    <_>
      <rects>
        <_>
          0 12 18 9 -1.</_>
        <_>
          9 12 9 9 2.</_></rects>
      <tilted>0</tilted></_>
    <_>
      <rects>
        <_>
          0 13 1 8 -1.</_>
        <_>
          0 15 1 4 2.</_></rects>
      <tilted>0</tilted></_>
    <_>
      <rects>
        <_>
          0 14 2 8 -1.</_>
        <_>
          1 14 1 8 2.</_></rects>
      <tilted>0</tilted></_>
    <_>
      <rects>
        <_>
          0 17 12 3 -1.</_>
        <_>
          0 18 12 1 3.</_></rects>
      <tilted>0</tilted></_>
    <_>
      <rects>
        <_>
          0 20 20 1 -1.</_>
        <_>
          5 20 10 1 2.</_></rects>
      <tilted>0</tilted></_>
    <_>
      <rects>
        <_>
          0 21 4 1 -1.</_>
        <_>
          2 21 2 1 2.</_></rects>
      <tilted>0</tilted></_>
    <_>
      <rects>
        <_>
          0 22 2 1 -1.</_>
        <_>
          1 22 1 1 2.</_></rects>
      <tilted>0</tilted></_>
    <_>
      <rects>
        <_>
          1 3 6 4 -1.</_>
        <_>
          4 3 3 4 2.</_></rects>
      <tilted>0</tilted></_>
    <_>
      <rects>
        <_>
          1 6 16 1 -1.</_>
        <_>
          1 6 8 1 2.</_></rects>
      <tilted>1</tilted></_>
    <_>
      <rects>
        <_>
          1 7 16 8 -1.</_>
        <_>
          9 7 8 8 2.</_></rects>
      <tilted>0</tilted></_>
    <_>
      <rects>
        <_>
          1 8 3 1 -1.</_>
        <_>
          2 8 1 1 3.</_></rects>
      <tilted>0</tilted></_>
    <_>
      <rects>
        <_>
          1 8 18 4 -1.</_>
        <_>
          7 8 6 4 3.</_></rects>
      <tilted>0</tilted></_>
    <_>
      <rects>
        <_>
          1 13 1 2 -1.</_>
        <_>
          1 14 1 1 2.</_></rects>
      <tilted>0</tilted></_>
    <_>
      <rects>
        <_>
          1 13 1 8 -1.</_>
        <_>
          1 15 1 4 2.</_></rects>
      <tilted>0</tilted></_>
    <_>
      <rects>
        <_>
          1 18 15 1 -1.</_>
        <_>
          6 18 5 1 3.</_></rects>
      <tilted>0</tilted></_>
    <_>
      <rects>
        <_>
          2 0 18 15 -1.</_>
        <_>
          8 5 6 5 9.</_></rects>
      <tilted>0</tilted></_>
    <_>
      <rects>
        <_>
          2 0 15 20 -1.</_>
        <_>
          2 5 15 10 2.</_></rects>
      <tilted>0</tilted></_>
    <_>
      <rects>
        <_>
          2 4 14 10 -1.</_>
        <_>
          9 4 7 10 2.</_></rects>
      <tilted>0</tilted></_>
    <_>
      <rects>
        <_>
          2 5 16 4 -1.</_>
        <_>
          10 5 8 4 2.</_></rects>
      <tilted>0</tilted></_>
    <_>
      <rects>
        <_>
          2 6 6 2 -1.</_>
        <_>
          5 6 3 2 2.</_></rects>
      <tilted>0</tilted></_>
    <_>
      <rects>
        <_>
          2 6 16 3 -1.</_>
        <_>
          6 6 8 3 2.</_></rects>
      <tilted>0</tilted></_>
    <_>
      <rects>
        <_>
          2 6 17 2 -1.</_>
        <_>
          2 7 17 1 2.</_></rects>
      <tilted>0</tilted></_>
    <_>
      <rects>
        <_>
          2 7 2 4 -1.</_>
        <_>
          3 7 1 4 2.</_></rects>
      <tilted>0</tilted></_>
    <_>
      <rects>
        <_>
          2 8 3 12 -1.</_>
        <_>
          2 11 3 6 2.</_></rects>
      <tilted>0</tilted></_>
    <_>
      <rects>
        <_>
          2 12 3 6 -1.</_>
        <_>
          2 14 3 2 3.</_></rects>
      <tilted>0</tilted></_>
    <_>
      <rects>
        <_>
          2 14 14 9 -1.</_>
        <_>
          2 17 14 3 3.</_></rects>
      <tilted>0</tilted></_>
    <_>
      <rects>
        <_>
          2 19 3 1 -1.</_>
        <_>
          3 20 1 1 3.</_></rects>
      <tilted>1</tilted></_>
    <_>
      <rects>
        <_>
          3 0 4 2 -1.</_>
        <_>
          5 0 2 2 2.</_></rects>
      <tilted>0</tilted></_>
    <_>
      <rects>
        <_>
          3 3 4 3 -1.</_>
        <_>
          3 3 2 3 2.</_></rects>
      <tilted>1</tilted></_>
    <_>
      <rects>
        <_>
          3 5 8 13 -1.</_>
        <_>
          7 5 4 13 2.</_></rects>
      <tilted>0</tilted></_>
    <_>
      <rects>
        <_>
          3 6 3 1 -1.</_>
        <_>
          4 6 1 1 3.</_></rects>
      <tilted>0</tilted></_>
    <_>
      <rects>
        <_>
          3 6 3 2 -1.</_>
        <_>
          4 6 1 2 3.</_></rects>
      <tilted>0</tilted></_>
    <_>
      <rects>
        <_>
          3 7 2 1 -1.</_>
        <_>
          4 7 1 1 2.</_></rects>
      <tilted>0</tilted></_>
    <_>
      <rects>
        <_>
          3 7 6 14 -1.</_>
        <_>
          3 7 3 7 2.</_>
        <_>
          6 14 3 7 2.</_></rects>
      <tilted>0</tilted></_>
    <_>
      <rects>
        <_>
          3 7 12 1 -1.</_>
        <_>
          9 7 6 1 2.</_></rects>
      <tilted>0</tilted></_>
    <_>
      <rects>
        <_>
          3 7 14 3 -1.</_>
        <_>
          10 7 7 3 2.</_></rects>
      <tilted>0</tilted></_>
    <_>
      <rects>
        <_>
          3 8 4 2 -1.</_>
        <_>
          3 8 2 1 2.</_>
        <_>
          5 9 2 1 2.</_></rects>
      <tilted>0</tilted></_>
    <_>
      <rects>
        <_>
          3 9 8 3 -1.</_>
        <_>
          5 9 4 3 2.</_></rects>
      <tilted>0</tilted></_>
    <_>
      <rects>
        <_>
          3 10 1 2 -1.</_>
        <_>
          3 11 1 1 2.</_></rects>
      <tilted>0</tilted></_>
    <_>
      <rects>
        <_>
          3 13 16 3 -1.</_>
        <_>
          7 13 8 3 2.</_></rects>
      <tilted>0</tilted></_>
    <_>
      <rects>
        <_>
          3 16 12 7 -1.</_>
        <_>
          6 16 6 7 2.</_></rects>
      <tilted>0</tilted></_>
    <_>
      <rects>
        <_>
          3 17 12 5 -1.</_>
        <_>
          7 17 4 5 3.</_></rects>
      <tilted>0</tilted></_>
    <_>
      <rects>
        <_>
          3 17 8 6 -1.</_>
        <_>
          3 19 8 2 3.</_></rects>
      <tilted>0</tilted></_>
    <_>
      <rects>
        <_>
          4 1 1 2 -1.</_>
        <_>
          4 2 1 1 2.</_></rects>
      <tilted>0</tilted></_>
    <_>
      <rects>
        <_>
          4 1 1 3 -1.</_>
        <_>
          3 2 1 1 3.</_></rects>
      <tilted>1</tilted></_>
    <_>
      <rects>
        <_>
          4 2 2 3 -1.</_>
        <_>
          3 3 2 1 3.</_></rects>
      <tilted>1</tilted></_>
    <_>
      <rects>
        <_>
          4 2 4 4 -1.</_>
        <_>
          4 2 2 4 2.</_></rects>
      <tilted>1</tilted></_>
    <_>
      <rects>
        <_>
          4 3 4 1 -1.</_>
        <_>
          5 4 2 1 2.</_></rects>
      <tilted>1</tilted></_>
    <_>
      <rects>
        <_>
          4 3 4 2 -1.</_>
        <_>
          4 3 2 2 2.</_></rects>
      <tilted>1</tilted></_>
    <_>
      <rects>
        <_>
          4 3 4 4 -1.</_>
        <_>
          4 3 2 4 2.</_></rects>
      <tilted>1</tilted></_>
    <_>
      <rects>
        <_>
          4 4 8 11 -1.</_>
        <_>
          8 4 4 11 2.</_></rects>
      <tilted>0</tilted></_>
    <_>
      <rects>
        <_>
          4 6 14 7 -1.</_>
        <_>
          11 6 7 7 2.</_></rects>
      <tilted>0</tilted></_>
    <_>
      <rects>
        <_>
          4 6 14 10 -1.</_>
        <_>
          11 6 7 10 2.</_></rects>
      <tilted>0</tilted></_>
    <_>
      <rects>
        <_>
          4 7 2 1 -1.</_>
        <_>
          5 7 1 1 2.</_></rects>
      <tilted>0</tilted></_>
    <_>
      <rects>
        <_>
          4 8 9 4 -1.</_>
        <_>
          7 8 3 4 3.</_></rects>
      <tilted>0</tilted></_>
    <_>
      <rects>
        <_>
          4 9 2 4 -1.</_>
        <_>
          4 11 2 2 2.</_></rects>
      <tilted>0</tilted></_>
    <_>
      <rects>
        <_>
          4 14 8 9 -1.</_>
        <_>
          6 14 4 9 2.</_></rects>
      <tilted>0</tilted></_>
    <_>
      <rects>
        <_>
          4 16 8 4 -1.</_>
        <_>
          6 16 4 4 2.</_></rects>
      <tilted>0</tilted></_>
    <_>
      <rects>
        <_>
          4 18 12 3 -1.</_>
        <_>
          7 18 6 3 2.</_></rects>
      <tilted>0</tilted></_>
    <_>
      <rects>
        <_>
          4 18 14 1 -1.</_>
        <_>
          11 18 7 1 2.</_></rects>
      <tilted>0</tilted></_>
    <_>
      <rects>
        <_>
          4 19 2 2 -1.</_>
        <_>
          4 19 2 1 2.</_></rects>
      <tilted>1</tilted></_>
    <_>
      <rects>
        <_>
          4 22 4 1 -1.</_>
        <_>
          5 22 2 1 2.</_></rects>
      <tilted>0</tilted></_>
    <_>
      <rects>
        <_>
          5 0 15 12 -1.</_>
        <_>
          10 4 5 4 9.</_></rects>
      <tilted>0</tilted></_>
    <_>
      <rects>
        <_>
          5 0 14 4 -1.</_>
        <_>
          5 0 7 2 2.</_>
        <_>
          12 2 7 2 2.</_></rects>
      <tilted>0</tilted></_>
    <_>
      <rects>
        <_>
          5 0 7 6 -1.</_>
        <_>
          5 3 7 3 2.</_></rects>
      <tilted>0</tilted></_>
    <_>
      <rects>
        <_>
          5 0 12 3 -1.</_>
        <_>
          4 1 12 1 3.</_></rects>
      <tilted>1</tilted></_>
    <_>
      <rects>
        <_>
          5 2 15 21 -1.</_>
        <_>
          10 9 5 7 9.</_></rects>
      <tilted>0</tilted></_>
    <_>
      <rects>
        <_>
          5 3 3 2 -1.</_>
        <_>
          6 3 1 2 3.</_></rects>
      <tilted>0</tilted></_>
    <_>
      <rects>
        <_>
          5 4 2 2 -1.</_>
        <_>
          5 4 1 1 2.</_>
        <_>
          6 5 1 1 2.</_></rects>
      <tilted>0</tilted></_>
    <_>
      <rects>
        <_>
          5 5 2 1 -1.</_>
        <_>
          6 5 1 1 2.</_></rects>
      <tilted>0</tilted></_>
    <_>
      <rects>
        <_>
          5 5 4 6 -1.</_>
        <_>
          5 5 2 3 2.</_>
        <_>
          7 8 2 3 2.</_></rects>
      <tilted>0</tilted></_>
    <_>
      <rects>
        <_>
          5 9 2 2 -1.</_>
        <_>
          5 9 1 1 2.</_>
        <_>
          6 10 1 1 2.</_></rects>
      <tilted>0</tilted></_>
    <_>
      <rects>
        <_>
          5 13 3 3 -1.</_>
        <_>
          4 14 3 1 3.</_></rects>
      <tilted>1</tilted></_>
    <_>
      <rects>
        <_>
          6 0 6 14 -1.</_>
        <_>
          8 0 2 14 3.</_></rects>
      <tilted>0</tilted></_>
    <_>
      <rects>
        <_>
          6 0 8 16 -1.</_>
        <_>
          6 0 4 8 2.</_>
        <_>
          10 8 4 8 2.</_></rects>
      <tilted>0</tilted></_>
    <_>
      <rects>
        <_>
          6 0 8 14 -1.</_>
        <_>
          6 7 8 7 2.</_></rects>
      <tilted>0</tilted></_>
    <_>
      <rects>
        <_>
          6 1 4 6 -1.</_>
        <_>
          6 1 2 6 2.</_></rects>
      <tilted>1</tilted></_>
    <_>
      <rects>
        <_>
          6 6 6 4 -1.</_>
        <_>
          8 8 2 4 3.</_></rects>
      <tilted>1</tilted></_>
    <_>
      <rects>
        <_>
          6 6 10 6 -1.</_>
        <_>
          6 6 5 3 2.</_>
        <_>
          11 9 5 3 2.</_></rects>
      <tilted>0</tilted></_>
    <_>
      <rects>
        <_>
          6 6 11 4 -1.</_>
        <_>
          6 7 11 2 2.</_></rects>
      <tilted>0</tilted></_>
    <_>
      <rects>
        <_>
          6 7 2 1 -1.</_>
        <_>
          7 7 1 1 2.</_></rects>
      <tilted>0</tilted></_>
    <_>
      <rects>
        <_>
          6 10 2 3 -1.</_>
        <_>
          6 11 2 1 3.</_></rects>
      <tilted>0</tilted></_>
    <_>
      <rects>
        <_>
          6 13 14 8 -1.</_>
        <_>
          6 13 7 4 2.</_>
        <_>
          13 17 7 4 2.</_></rects>
      <tilted>0</tilted></_>
    <_>
      <rects>
        <_>
          6 14 3 1 -1.</_>
        <_>
          7 14 1 1 3.</_></rects>
      <tilted>0</tilted></_>
    <_>
      <rects>
        <_>
          6 20 12 2 -1.</_>
        <_>
          6 20 6 1 2.</_>
        <_>
          12 21 6 1 2.</_></rects>
      <tilted>0</tilted></_>
    <_>
      <rects>
        <_>
          6 22 8 1 -1.</_>
        <_>
          8 22 4 1 2.</_></rects>
      <tilted>0</tilted></_>
    <_>
      <rects>
        <_>
          6 22 9 1 -1.</_>
        <_>
          9 22 3 1 3.</_></rects>
      <tilted>0</tilted></_>
    <_>
      <rects>
        <_>
          7 0 4 7 -1.</_>
        <_>
          7 0 2 7 2.</_></rects>
      <tilted>1</tilted></_>
    <_>
      <rects>
        <_>
          7 0 9 1 -1.</_>
        <_>
          10 0 3 1 3.</_></rects>
      <tilted>0</tilted></_>
    <_>
      <rects>
        <_>
          7 0 6 4 -1.</_>
        <_>
          7 1 6 2 2.</_></rects>
      <tilted>0</tilted></_>
    <_>
      <rects>
        <_>
          7 0 6 6 -1.</_>
        <_>
          7 3 6 3 2.</_></rects>
      <tilted>0</tilted></_>
    <_>
      <rects>
        <_>
          7 2 9 6 -1.</_>
        <_>
          7 5 9 3 2.</_></rects>
      <tilted>0</tilted></_>
    <_>
      <rects>
        <_>
          7 4 8 6 -1.</_>
        <_>
          7 4 4 3 2.</_>
        <_>
          11 7 4 3 2.</_></rects>
      <tilted>0</tilted></_>
    <_>
      <rects>
        <_>
          7 5 2 2 -1.</_>
        <_>
          7 5 1 1 2.</_>
        <_>
          8 6 1 1 2.</_></rects>
      <tilted>0</tilted></_>
    <_>
      <rects>
        <_>
          7 7 8 16 -1.</_>
        <_>
          7 15 8 8 2.</_></rects>
      <tilted>0</tilted></_>
    <_>
      <rects>
        <_>
          7 8 3 1 -1.</_>
        <_>
          8 8 1 1 3.</_></rects>
      <tilted>0</tilted></_>
    <_>
      <rects>
        <_>
          7 9 8 2 -1.</_>
        <_>
          9 9 4 2 2.</_></rects>
      <tilted>0</tilted></_>
    <_>
      <rects>
        <_>
          7 10 10 3 -1.</_>
        <_>
          7 11 10 1 3.</_></rects>
      <tilted>0</tilted></_>
    <_>
      <rects>
        <_>
          7 11 4 6 -1.</_>
        <_>
          5 13 4 2 3.</_></rects>
      <tilted>1</tilted></_>
    <_>
      <rects>
        <_>
          7 12 8 2 -1.</_>
        <_>
          11 12 4 2 2.</_></rects>
      <tilted>0</tilted></_>
    <_>
      <rects>
        <_>
          7 13 2 4 -1.</_>
        <_>
          7 14 2 2 2.</_></rects>
      <tilted>0</tilted></_>
    <_>
      <rects>
        <_>
          7 14 2 3 -1.</_>
        <_>
          7 15 2 1 3.</_></rects>
      <tilted>0</tilted></_>
    <_>
      <rects>
        <_>
          7 14 9 6 -1.</_>
        <_>
          10 14 3 6 3.</_></rects>
      <tilted>0</tilted></_>
    <_>
      <rects>
        <_>
          7 16 9 6 -1.</_>
        <_>
          7 18 9 2 3.</_></rects>
      <tilted>0</tilted></_>
    <_>
      <rects>
        <_>
          7 18 6 1 -1.</_>
        <_>
          9 18 2 1 3.</_></rects>
      <tilted>0</tilted></_>
    <_>
      <rects>
        <_>
          7 21 8 2 -1.</_>
        <_>
          11 21 4 2 2.</_></rects>
      <tilted>0</tilted></_>
    <_>
      <rects>
        <_>
          8 0 6 1 -1.</_>
        <_>
          11 0 3 1 2.</_></rects>
      <tilted>0</tilted></_>
    <_>
      <rects>
        <_>
          8 0 3 6 -1.</_>
        <_>
          8 2 3 2 3.</_></rects>
      <tilted>0</tilted></_>
    <_>
      <rects>
        <_>
          8 0 5 3 -1.</_>
        <_>
          8 1 5 1 3.</_></rects>
      <tilted>0</tilted></_>
    <_>
      <rects>
        <_>
          8 5 9 8 -1.</_>
        <_>
          6 7 9 4 2.</_></rects>
      <tilted>1</tilted></_>
    <_>
      <rects>
        <_>
          8 6 8 4 -1.</_>
        <_>
          8 6 4 2 2.</_>
        <_>
          12 8 4 2 2.</_></rects>
      <tilted>0</tilted></_>
    <_>
      <rects>
        <_>
          8 7 4 3 -1.</_>
        <_>
          8 8 4 1 3.</_></rects>
      <tilted>0</tilted></_>
    <_>
      <rects>
        <_>
          8 8 7 8 -1.</_>
        <_>
          6 10 7 4 2.</_></rects>
      <tilted>1</tilted></_>
    <_>
      <rects>
        <_>
          8 12 2 4 -1.</_>
        <_>
          8 12 1 2 2.</_>
        <_>
          9 14 1 2 2.</_></rects>
      <tilted>0</tilted></_>
    <_>
      <rects>
        <_>
          8 13 3 2 -1.</_>
        <_>
          9 13 1 2 3.</_></rects>
      <tilted>0</tilted></_>
    <_>
      <rects>
        <_>
          8 13 1 8 -1.</_>
        <_>
          6 15 1 4 2.</_></rects>
      <tilted>1</tilted></_>
    <_>
      <rects>
        <_>
          8 16 4 3 -1.</_>
        <_>
          9 17 2 3 2.</_></rects>
      <tilted>1</tilted></_>
    <_>
      <rects>
        <_>
          8 19 2 1 -1.</_>
        <_>
          9 19 1 1 2.</_></rects>
      <tilted>0</tilted></_>
    <_>
      <rects>
        <_>
          8 19 11 4 -1.</_>
        <_>
          8 20 11 2 2.</_></rects>
      <tilted>0</tilted></_>
    <_>
      <rects>
        <_>
          9 0 4 6 -1.</_>
        <_>
          7 2 4 2 3.</_></rects>
      <tilted>1</tilted></_>
    <_>
      <rects>
        <_>
          9 3 6 4 -1.</_>
        <_>
          9 4 6 2 2.</_></rects>
      <tilted>0</tilted></_>
    <_>
      <rects>
        <_>
          9 5 9 3 -1.</_>
        <_>
          9 6 9 1 3.</_></rects>
      <tilted>0</tilted></_>
    <_>
      <rects>
        <_>
          9 6 10 10 -1.</_>
        <_>
          14 6 5 10 2.</_></rects>
      <tilted>0</tilted></_>
    <_>
      <rects>
        <_>
          9 11 8 2 -1.</_>
        <_>
          11 11 4 2 2.</_></rects>
      <tilted>0</tilted></_>
    <_>
      <rects>
        <_>
          9 13 8 10 -1.</_>
        <_>
          9 18 8 5 2.</_></rects>
      <tilted>0</tilted></_>
    <_>
      <rects>
        <_>
          9 17 3 1 -1.</_>
        <_>
          10 18 1 1 3.</_></rects>
      <tilted>1</tilted></_>
    <_>
      <rects>
        <_>
          9 17 4 6 -1.</_>
        <_>
          10 17 2 6 2.</_></rects>
      <tilted>0</tilted></_>
    <_>
      <rects>
        <_>
          10 2 1 20 -1.</_>
        <_>
          10 7 1 10 2.</_></rects>
      <tilted>0</tilted></_>
    <_>
      <rects>
        <_>
          10 2 3 7 -1.</_>
        <_>
          11 2 1 7 3.</_></rects>
      <tilted>0</tilted></_>
    <_>
      <rects>
        <_>
          10 2 10 4 -1.</_>
        <_>
          10 2 10 2 2.</_></rects>
      <tilted>1</tilted></_>
    <_>
      <rects>
        <_>
          10 8 2 2 -1.</_>
        <_>
          10 8 1 1 2.</_>
        <_>
          11 9 1 1 2.</_></rects>
      <tilted>0</tilted></_>
    <_>
      <rects>
        <_>
          10 8 2 6 -1.</_>
        <_>
          8 10 2 2 3.</_></rects>
      <tilted>1</tilted></_>
    <_>
      <rects>
        <_>
          10 10 2 9 -1.</_>
        <_>
          7 13 2 3 3.</_></rects>
      <tilted>1</tilted></_>
    <_>
      <rects>
        <_>
          10 11 2 1 -1.</_>
        <_>
          11 11 1 1 2.</_></rects>
      <tilted>0</tilted></_>
    <_>
      <rects>
        <_>
          10 11 1 3 -1.</_>
        <_>
          9 12 1 1 3.</_></rects>
      <tilted>1</tilted></_>
    <_>
      <rects>
        <_>
          10 13 4 2 -1.</_>
        <_>
          11 14 2 2 2.</_></rects>
      <tilted>1</tilted></_>
    <_>
      <rects>
        <_>
          10 14 3 8 -1.</_>
        <_>
          11 14 1 8 3.</_></rects>
      <tilted>0</tilted></_>
    <_>
      <rects>
        <_>
          10 17 4 1 -1.</_>
        <_>
          12 17 2 1 2.</_></rects>
      <tilted>0</tilted></_>
    <_>
      <rects>
        <_>
          11 0 9 4 -1.</_>
        <_>
          14 0 3 4 3.</_></rects>
      <tilted>0</tilted></_>
    <_>
      <rects>
        <_>
          11 4 8 8 -1.</_>
        <_>
          11 4 8 4 2.</_></rects>
      <tilted>1</tilted></_>
    <_>
      <rects>
        <_>
          11 7 3 1 -1.</_>
        <_>
          12 7 1 1 3.</_></rects>
      <tilted>0</tilted></_>
    <_>
      <rects>
        <_>
          11 22 4 1 -1.</_>
        <_>
          12 22 2 1 2.</_></rects>
      <tilted>0</tilted></_>
    <_>
      <rects>
        <_>
          12 2 6 20 -1.</_>
        <_>
          12 7 6 10 2.</_></rects>
      <tilted>0</tilted></_>
    <_>
      <rects>
        <_>
          12 4 6 4 -1.</_>
        <_>
          11 5 6 2 2.</_></rects>
      <tilted>1</tilted></_>
    <_>
      <rects>
        <_>
          12 7 8 2 -1.</_>
        <_>
          12 7 4 1 2.</_>
        <_>
          16 8 4 1 2.</_></rects>
      <tilted>0</tilted></_>
    <_>
      <rects>
        <_>
          12 8 1 12 -1.</_>
        <_>
          9 11 1 6 2.</_></rects>
      <tilted>1</tilted></_>
    <_>
      <rects>
        <_>
          12 9 1 3 -1.</_>
        <_>
          12 10 1 1 3.</_></rects>
      <tilted>0</tilted></_>
    <_>
      <rects>
        <_>
          12 13 2 3 -1.</_>
        <_>
          12 14 2 1 3.</_></rects>
      <tilted>0</tilted></_>
    <_>
      <rects>
        <_>
          12 15 4 3 -1.</_>
        <_>
          11 16 4 1 3.</_></rects>
      <tilted>1</tilted></_>
    <_>
      <rects>
        <_>
          12 16 3 6 -1.</_>
        <_>
          13 16 1 6 3.</_></rects>
      <tilted>0</tilted></_>
    <_>
      <rects>
        <_>
          12 17 2 4 -1.</_>
        <_>
          12 17 1 2 2.</_>
        <_>
          13 19 1 2 2.</_></rects>
      <tilted>0</tilted></_>
    <_>
      <rects>
        <_>
          12 22 6 1 -1.</_>
        <_>
          14 22 2 1 3.</_></rects>
      <tilted>0</tilted></_>
    <_>
      <rects>
        <_>
          13 0 2 4 -1.</_>
        <_>
          13 0 2 2 2.</_></rects>
      <tilted>1</tilted></_>
    <_>
      <rects>
        <_>
          13 0 6 3 -1.</_>
        <_>
          12 1 6 1 3.</_></rects>
      <tilted>1</tilted></_>
    <_>
      <rects>
        <_>
          13 0 6 4 -1.</_>
        <_>
          13 0 6 2 2.</_></rects>
      <tilted>1</tilted></_>
    <_>
      <rects>
        <_>
          13 6 2 2 -1.</_>
        <_>
          13 6 1 1 2.</_>
        <_>
          14 7 1 1 2.</_></rects>
      <tilted>0</tilted></_>
    <_>
      <rects>
        <_>
          13 6 5 6 -1.</_>
        <_>
          11 8 5 2 3.</_></rects>
      <tilted>1</tilted></_>
    <_>
      <rects>
        <_>
          13 10 5 3 -1.</_>
        <_>
          13 11 5 1 3.</_></rects>
      <tilted>0</tilted></_>
    <_>
      <rects>
        <_>
          13 11 1 4 -1.</_>
        <_>
          13 12 1 2 2.</_></rects>
      <tilted>0</tilted></_>
    <_>
      <rects>
        <_>
          14 0 4 2 -1.</_>
        <_>
          15 0 2 2 2.</_></rects>
      <tilted>0</tilted></_>
    <_>
      <rects>
        <_>
          14 1 5 3 -1.</_>
        <_>
          13 2 5 1 3.</_></rects>
      <tilted>1</tilted></_>
    <_>
      <rects>
        <_>
          14 1 6 8 -1.</_>
        <_>
          12 3 6 4 2.</_></rects>
      <tilted>1</tilted></_>
    <_>
      <rects>
        <_>
          14 2 1 6 -1.</_>
        <_>
          14 2 1 3 2.</_></rects>
      <tilted>1</tilted></_>
    <_>
      <rects>
        <_>
          14 3 4 8 -1.</_>
        <_>
          14 3 2 4 2.</_>
        <_>
          16 7 2 4 2.</_></rects>
      <tilted>0</tilted></_>
    <_>
      <rects>
        <_>
          14 3 6 2 -1.</_>
        <_>
          14 3 3 1 2.</_>
        <_>
          17 4 3 1 2.</_></rects>
      <tilted>0</tilted></_>
    <_>
      <rects>
        <_>
          14 3 6 4 -1.</_>
        <_>
          14 3 6 2 2.</_></rects>
      <tilted>1</tilted></_>
    <_>
      <rects>
        <_>
          14 6 6 10 -1.</_>
        <_>
          17 6 3 10 2.</_></rects>
      <tilted>0</tilted></_>
    <_>
      <rects>
        <_>
          14 7 6 2 -1.</_>
        <_>
          17 7 3 2 2.</_></rects>
      <tilted>0</tilted></_>
    <_>
      <rects>
        <_>
          14 12 5 4 -1.</_>
        <_>
          14 12 5 2 2.</_></rects>
      <tilted>1</tilted></_>
    <_>
      <rects>
        <_>
          14 12 6 6 -1.</_>
        <_>
          14 15 6 3 2.</_></rects>
      <tilted>0</tilted></_>
    <_>
      <rects>
        <_>
          14 13 3 2 -1.</_>
        <_>
          15 13 1 2 3.</_></rects>
      <tilted>0</tilted></_>
    <_>
      <rects>
        <_>
          14 13 6 3 -1.</_>
        <_>
          16 15 2 3 3.</_></rects>
      <tilted>1</tilted></_>
    <_>
      <rects>
        <_>
          14 14 2 4 -1.</_>
        <_>
          14 16 2 2 2.</_></rects>
      <tilted>0</tilted></_>
    <_>
      <rects>
        <_>
          14 15 4 4 -1.</_>
        <_>
          16 15 2 4 2.</_></rects>
      <tilted>0</tilted></_>
    <_>
      <rects>
        <_>
          14 19 1 2 -1.</_>
        <_>
          14 19 1 1 2.</_></rects>
      <tilted>1</tilted></_>
    <_>
      <rects>
        <_>
          14 19 3 2 -1.</_>
        <_>
          15 19 1 2 3.</_></rects>
      <tilted>0</tilted></_>
    <_>
      <rects>
        <_>
          14 21 6 2 -1.</_>
        <_>
          17 21 3 2 2.</_></rects>
      <tilted>0</tilted></_>
    <_>
      <rects>
        <_>
          15 0 4 1 -1.</_>
        <_>
          16 1 2 1 2.</_></rects>
      <tilted>1</tilted></_>
    <_>
      <rects>
        <_>
          15 4 4 17 -1.</_>
        <_>
          17 4 2 17 2.</_></rects>
      <tilted>0</tilted></_>
    <_>
      <rects>
        <_>
          15 6 1 3 -1.</_>
        <_>
          15 7 1 1 3.</_></rects>
      <tilted>0</tilted></_>
    <_>
      <rects>
        <_>
          15 17 1 2 -1.</_>
        <_>
          15 17 1 1 2.</_></rects>
      <tilted>1</tilted></_>
    <_>
      <rects>
        <_>
          16 0 4 13 -1.</_>
        <_>
          18 0 2 13 2.</_></rects>
      <tilted>0</tilted></_>
    <_>
      <rects>
        <_>
          16 1 4 2 -1.</_>
        <_>
          17 1 2 2 2.</_></rects>
      <tilted>0</tilted></_>
    <_>
      <rects>
        <_>
          16 3 2 9 -1.</_>
        <_>
          17 3 1 9 2.</_></rects>
      <tilted>0</tilted></_>
    <_>
      <rects>
        <_>
          16 3 3 10 -1.</_>
        <_>
          16 8 3 5 2.</_></rects>
      <tilted>0</tilted></_>
    <_>
      <rects>
        <_>
          16 5 3 15 -1.</_>
        <_>
          17 5 1 15 3.</_></rects>
      <tilted>0</tilted></_>
    <_>
      <rects>
        <_>
          16 11 4 3 -1.</_>
        <_>
          18 11 2 3 2.</_></rects>
      <tilted>0</tilted></_>
    <_>
      <rects>
        <_>
          16 16 2 4 -1.</_>
        <_>
          16 18 2 2 2.</_></rects>
      <tilted>0</tilted></_>
    <_>
      <rects>
        <_>
          16 20 2 3 -1.</_>
        <_>
          17 20 1 3 2.</_></rects>
      <tilted>0</tilted></_>
    <_>
      <rects>
        <_>
          17 2 2 3 -1.</_>
        <_>
          17 3 2 1 3.</_></rects>
      <tilted>0</tilted></_>
    <_>
      <rects>
        <_>
          17 2 2 4 -1.</_>
        <_>
          17 3 2 2 2.</_></rects>
      <tilted>0</tilted></_>
    <_>
      <rects>
        <_>
          17 8 3 7 -1.</_>
        <_>
          18 8 1 7 3.</_></rects>
      <tilted>0</tilted></_>
    <_>
      <rects>
        <_>
          17 14 2 3 -1.</_>
        <_>
          17 14 1 3 2.</_></rects>
      <tilted>1</tilted></_>
    <_>
      <rects>
        <_>
          18 2 2 8 -1.</_>
        <_>
          16 4 2 4 2.</_></rects>
      <tilted>1</tilted></_>
    <_>
      <rects>
        <_>
          18 7 2 4 -1.</_>
        <_>
          18 9 2 2 2.</_></rects>
      <tilted>0</tilted></_>
    <_>
      <rects>
        <_>
          18 12 2 6 -1.</_>
        <_>
          18 12 1 6 2.</_></rects>
      <tilted>1</tilted></_>
    <_>
      <rects>
        <_>
          18 12 2 7 -1.</_>
        <_>
          19 12 1 7 2.</_></rects>
      <tilted>0</tilted></_>
    <_>
      <rects>
        <_>
          18 15 2 3 -1.</_>
        <_>
          19 15 1 3 2.</_></rects>
      <tilted>0</tilted></_>
    <_>
      <rects>
        <_>
          18 21 2 2 -1.</_>
        <_>
          19 21 1 2 2.</_></rects>
      <tilted>0</tilted></_>
    <_>
      <rects>
        <_>
          19 5 1 4 -1.</_>
        <_>
          19 6 1 2 2.</_></rects>
      <tilted>0</tilted></_>
    <_>
      <rects>
        <_>
          19 5 1 8 -1.</_>
        <_>
          19 7 1 4 2.</_></rects>
      <tilted>0</tilted></_>
    <_>
      <rects>
        <_>
          19 5 1 6 -1.</_>
        <_>
          17 7 1 2 3.</_></rects>
      <tilted>1</tilted></_>
    <_>
      <rects>
        <_>
          19 7 1 9 -1.</_>
        <_>
          19 10 1 3 3.</_></rects>
      <tilted>0</tilted></_>
    <_>
      <rects>
        <_>
          19 13 1 3 -1.</_>
        <_>
          19 14 1 1 3.</_></rects>
      <tilted>0</tilted></_>
    <_>
      <rects>
        <_>
          19 17 1 3 -1.</_>
        <_>
          18 18 1 1 3.</_></rects>
      <tilted>1</tilted></_>
    <_>
      <rects>
        <_>
          19 17 1 4 -1.</_>
        <_>
          18 18 1 2 2.</_></rects>
      <tilted>1</tilted></_>
    <_>
      <rects>
        <_>
          19 17 1 6 -1.</_>
        <_>
          19 19 1 2 3.</_></rects>
      <tilted>0</tilted></_></features></cascade>
</opencv_storage>
