<?xml version="1.0"?>
<opencv_storage>
<stage14>
  <maxWeakCount>8</maxWeakCount>
  <stageThreshold>-1.0584417581558228e+00</stageThreshold>
  <weakClassifiers>
    <_>
      <internalNodes>
        0 -1 74376 9.6666544675827026e-02</internalNodes>
      <leafValues>
        -5.6549519300460815e-01 7.2972971200942993e-01</leafValues></_>
    <_>
      <internalNodes>
        0 -1 62000 2.3684261832386255e-03</internalNodes>
      <leafValues>
        2.8464919328689575e-01 -7.3213440179824829e-01</leafValues></_>
    <_>
      <internalNodes>
        0 -1 51123 1.3910385314375162e-03</internalNodes>
      <leafValues>
        2.5238263607025146e-01 -6.5632003545761108e-01</leafValues></_>
    <_>
      <internalNodes>
        0 -1 160969 -8.3168275887146592e-04</internalNodes>
      <leafValues>
        -6.1589574813842773e-01 2.3650048673152924e-01</leafValues></_>
    <_>
      <internalNodes>
        0 -1 71727 -9.2258043587207794e-03</internalNodes>
      <leafValues>
        9.4438260793685913e-01 -1.5719123184680939e-01</leafValues></_>
    <_>
      <internalNodes>
        0 -1 121465 -1.2100525200366974e-03</internalNodes>
      <leafValues>
        5.6400984525680542e-01 -2.6002028584480286e-01</leafValues></_>
    <_>
      <internalNodes>
        0 -1 20063 -2.4287272989749908e-01</internalNodes>
      <leafValues>
        9.1314089298248291e-01 -1.3487368822097778e-01</leafValues></_>
    <_>
      <internalNodes>
        0 -1 62285 1.1410985607653856e-03</internalNodes>
      <leafValues>
        2.2267511487007141e-01 -8.0035626888275146e-01</leafValues></_></weakClassifiers></stage14>
</opencv_storage>
