<?xml version="1.0"?>
<opencv_storage>
<stage12>
  <maxWeakCount>12</maxWeakCount>
  <stageThreshold>-1.0770981311798096e+00</stageThreshold>
  <weakClassifiers>
    <_>
      <internalNodes>
        0 -1 79420 5.3298095008358359e-04</internalNodes>
      <leafValues>
        -5.6020945310592651e-01 1.6535432636737823e-01</leafValues></_>
    <_>
      <internalNodes>
        0 -1 157515 -1.2005488388240337e-02</internalNodes>
      <leafValues>
        3.0149942636489868e-01 -3.5878458619117737e-01</leafValues></_>
    <_>
      <internalNodes>
        0 -1 160970 -2.5513656437397003e-03</internalNodes>
      <leafValues>
        -7.7057993412017822e-01 1.3525336980819702e-01</leafValues></_>
    <_>
      <internalNodes>
        0 -1 8278 -4.4060912914574146e-03</internalNodes>
      <leafValues>
        -7.2645998001098633e-01 1.5208922326564789e-01</leafValues></_>
    <_>
      <internalNodes>
        0 -1 63133 -1.9065883010625839e-02</internalNodes>
      <leafValues>
        -7.6593452692031860e-01 8.5258029401302338e-02</leafValues></_>
    <_>
      <internalNodes>
        0 -1 43593 -1.0819699382409453e-03</internalNodes>
      <leafValues>
        4.6330973505973816e-01 -2.1665661036968231e-01</leafValues></_>
    <_>
      <internalNodes>
        0 -1 93791 -1.7275079153478146e-03</internalNodes>
      <leafValues>
        4.7850847244262695e-01 -1.9717891514301300e-01</leafValues></_>
    <_>
      <internalNodes>
        0 -1 139402 1.5260688960552216e-03</internalNodes>
      <leafValues>
        1.7563867568969727e-01 -6.9041097164154053e-01</leafValues></_>
    <_>
      <internalNodes>
        0 -1 53077 1.2269158614799380e-03</internalNodes>
      <leafValues>
        -2.6721405982971191e-01 3.8303598761558533e-01</leafValues></_>
    <_>
      <internalNodes>
        0 -1 16384 -2.2591078653931618e-02</internalNodes>
      <leafValues>
        5.3051251173019409e-01 -1.9360058009624481e-01</leafValues></_>
    <_>
      <internalNodes>
        0 -1 139031 1.0456405580043793e-03</internalNodes>
      <leafValues>
        -1.6772817075252533e-01 5.1900452375411987e-01</leafValues></_>
    <_>
      <internalNodes>
        0 -1 120023 2.5063112843781710e-04</internalNodes>
      <leafValues>
        -2.6244932413101196e-01 3.9230355620384216e-01</leafValues></_></weakClassifiers></stage12>
</opencv_storage>
