<?xml version="1.0"?>
<opencv_storage>
<stage1>
  <maxWeakCount>8</maxWeakCount>
  <stageThreshold>-1.3292137384414673e+00</stageThreshold>
  <weakClassifiers>
    <_>
      <internalNodes>
        0 -1 148759 5.9470914304256439e-02</internalNodes>
      <leafValues>
        -6.1774742603302002e-01 5.4385966062545776e-01</leafValues></_>
    <_>
      <internalNodes>
        0 -1 95479 -4.5970100909471512e-03</internalNodes>
      <leafValues>
        4.5992735028266907e-01 -3.9948463439941406e-01</leafValues></_>
    <_>
      <internalNodes>
        0 -1 74755 5.8622978627681732e-02</internalNodes>
      <leafValues>
        -1.7471516132354736e-01 8.4340804815292358e-01</leafValues></_>
    <_>
      <internalNodes>
        0 -1 150670 -1.6602983698248863e-02</internalNodes>
      <leafValues>
        5.4714459180831909e-01 -2.3981547355651855e-01</leafValues></_>
    <_>
      <internalNodes>
        0 -1 131839 9.8197907209396362e-04</internalNodes>
      <leafValues>
        1.5666544437408447e-01 -8.2227796316146851e-01</leafValues></_>
    <_>
      <internalNodes>
        0 -1 151671 1.2568184174597263e-03</internalNodes>
      <leafValues>
        -3.6029437184333801e-01 3.8671272993087769e-01</leafValues></_>
    <_>
      <internalNodes>
        0 -1 123254 2.3906254209578037e-03</internalNodes>
      <leafValues>
        -2.2516310214996338e-01 6.0367143154144287e-01</leafValues></_>
    <_>
      <internalNodes>
        0 -1 153774 -4.1347817750647664e-04</internalNodes>
      <leafValues>
        4.3875792622566223e-01 -2.9749348759651184e-01</leafValues></_></weakClassifiers></stage1>
</opencv_storage>
