<?xml version="1.0"?>
<opencv_storage>
<stage3>
  <maxWeakCount>10</maxWeakCount>
  <stageThreshold>-8.8289886713027954e-01</stageThreshold>
  <weakClassifiers>
    <_>
      <internalNodes>
        0 -1 146657 -1.1100064963102341e-01</internalNodes>
      <leafValues>
        7.8181821107864380e-01 -5.3178292512893677e-01</leafValues></_>
    <_>
      <internalNodes>
        0 -1 36623 3.4343026578426361e-02</internalNodes>
      <leafValues>
        -3.6644837260246277e-01 3.5004982352256775e-01</leafValues></_>
    <_>
      <internalNodes>
        0 -1 85316 4.7623272985219955e-03</internalNodes>
      <leafValues>
        -2.0801465213298798e-01 5.1174497604370117e-01</leafValues></_>
    <_>
      <internalNodes>
        0 -1 56217 -1.1226366460323334e-01</internalNodes>
      <leafValues>
        6.3467752933502197e-01 -1.7832170426845551e-01</leafValues></_>
    <_>
      <internalNodes>
        0 -1 7646 -1.5884060412645340e-02</internalNodes>
      <leafValues>
        6.6355025768280029e-01 -1.8714787065982819e-01</leafValues></_>
    <_>
      <internalNodes>
        0 -1 147583 -2.1578770130872726e-02</internalNodes>
      <leafValues>
        5.3158152103424072e-01 -2.3127071559429169e-01</leafValues></_>
    <_>
      <internalNodes>
        0 -1 164933 1.7206149641424417e-03</internalNodes>
      <leafValues>
        1.2564294040203094e-01 -9.4770693778991699e-01</leafValues></_>
    <_>
      <internalNodes>
        0 -1 62972 -2.9709205031394958e-02</internalNodes>
      <leafValues>
        4.3533170223236084e-01 -2.5165921449661255e-01</leafValues></_>
    <_>
      <internalNodes>
        0 -1 121154 1.9653704017400742e-02</internalNodes>
      <leafValues>
        -2.4619074165821075e-01 4.5894885063171387e-01</leafValues></_>
    <_>
      <internalNodes>
        0 -1 33007 -1.0244774632155895e-02</internalNodes>
      <leafValues>
        4.9486419558525085e-01 -2.1445608139038086e-01</leafValues></_></weakClassifiers></stage3>
</opencv_storage>
