<?xml version="1.0"?>
<opencv_storage>
<stage2>
  <maxWeakCount>9</maxWeakCount>
  <stageThreshold>-1.0336654186248779e+00</stageThreshold>
  <weakClassifiers>
    <_>
      <internalNodes>
        0 -1 126822 -1.4950536191463470e-01</internalNodes>
      <leafValues>
        5.2941179275512695e-01 -5.9197324514389038e-01</leafValues></_>
    <_>
      <internalNodes>
        0 -1 383 -5.3335100412368774e-01</internalNodes>
      <leafValues>
        8.0648243427276611e-01 -2.0833203196525574e-01</leafValues></_>
    <_>
      <internalNodes>
        0 -1 163446 -1.1585586704313755e-02</internalNodes>
      <leafValues>
        4.3271088600158691e-01 -2.7657184004783630e-01</leafValues></_>
    <_>
      <internalNodes>
        0 -1 84718 -5.5956267751753330e-03</internalNodes>
      <leafValues>
        -9.0066593885421753e-01 1.2903313338756561e-01</leafValues></_>
    <_>
      <internalNodes>
        0 -1 84716 2.5282613933086395e-03</internalNodes>
      <leafValues>
        1.7546574771404266e-01 -6.7922228574752808e-01</leafValues></_>
    <_>
      <internalNodes>
        0 -1 23215 -1.5806118608452380e-04</internalNodes>
      <leafValues>
        3.6119690537452698e-01 -3.3181998133659363e-01</leafValues></_>
    <_>
      <internalNodes>
        0 -1 136765 -1.1814713943749666e-03</internalNodes>
      <leafValues>
        6.0310935974121094e-01 -2.0106677711009979e-01</leafValues></_>
    <_>
      <internalNodes>
        0 -1 7057 1.3588631153106689e-01</internalNodes>
      <leafValues>
        -1.4539037644863129e-01 7.5196099281311035e-01</leafValues></_>
    <_>
      <internalNodes>
        0 -1 7751 -5.4521426558494568e-02</internalNodes>
      <leafValues>
        7.9260438680648804e-01 -1.5994498133659363e-01</leafValues></_></weakClassifiers></stage2>
</opencv_storage>
