<?xml version="1.0"?>
<opencv_storage>
<stage8>
  <maxWeakCount>10</maxWeakCount>
  <stageThreshold>-1.0086991786956787e+00</stageThreshold>
  <weakClassifiers>
    <_>
      <internalNodes>
        0 -1 62825 -4.0513497591018677e-01</internalNodes>
      <leafValues>
        3.5714286565780640e-01 -5.3571426868438721e-01</leafValues></_>
    <_>
      <internalNodes>
        0 -1 52238 -6.9135203957557678e-03</internalNodes>
      <leafValues>
        -8.4944713115692139e-01 9.9944479763507843e-02</leafValues></_>
    <_>
      <internalNodes>
        0 -1 61914 4.9880221486091614e-03</internalNodes>
      <leafValues>
        -2.5899797677993774e-01 4.2493283748626709e-01</leafValues></_>
    <_>
      <internalNodes>
        0 -1 57392 -2.6096723973751068e-02</internalNodes>
      <leafValues>
        -6.2574893236160278e-01 2.2126337885856628e-01</leafValues></_>
    <_>
      <internalNodes>
        0 -1 35445 7.8137908130884171e-03</internalNodes>
      <leafValues>
        -2.3069049417972565e-01 5.8161509037017822e-01</leafValues></_>
    <_>
      <internalNodes>
        0 -1 38296 -4.3630460277199745e-03</internalNodes>
      <leafValues>
        -6.5890818834304810e-01 1.9734270870685577e-01</leafValues></_>
    <_>
      <internalNodes>
        0 -1 56438 4.1991804027929902e-04</internalNodes>
      <leafValues>
        -2.6400700211524963e-01 4.8468095064163208e-01</leafValues></_>
    <_>
      <internalNodes>
        0 -1 78867 3.5262867808341980e-02</internalNodes>
      <leafValues>
        1.8104733526706696e-01 -6.1684584617614746e-01</leafValues></_>
    <_>
      <internalNodes>
        0 -1 2179 1.7880749655887485e-03</internalNodes>
      <leafValues>
        1.2927451729774475e-01 -7.4162077903747559e-01</leafValues></_>
    <_>
      <internalNodes>
        0 -1 116303 -1.5675236936658621e-03</internalNodes>
      <leafValues>
        3.7030929327011108e-01 -2.8270101547241211e-01</leafValues></_></weakClassifiers></stage8>
</opencv_storage>
