<?xml version="1.0"?>
<opencv_storage>
<stage6>
  <maxWeakCount>10</maxWeakCount>
  <stageThreshold>-8.4354174137115479e-01</stageThreshold>
  <weakClassifiers>
    <_>
      <internalNodes>
        0 -1 84940 8.5791364312171936e-02</internalNodes>
      <leafValues>
        -5.1007753610610962e-01 5.2727270126342773e-01</leafValues></_>
    <_>
      <internalNodes>
        0 -1 159465 1.5693187713623047e-02</internalNodes>
      <leafValues>
        -2.6478019356727600e-01 6.1523061990737915e-01</leafValues></_>
    <_>
      <internalNodes>
        0 -1 164939 -2.8684963472187519e-03</internalNodes>
      <leafValues>
        -6.3681632280349731e-01 2.0931488275527954e-01</leafValues></_>
    <_>
      <internalNodes>
        0 -1 136161 -9.7041903063654900e-04</internalNodes>
      <leafValues>
        4.0539470314979553e-01 -3.1028977036476135e-01</leafValues></_>
    <_>
      <internalNodes>
        0 -1 92727 3.5516623407602310e-02</internalNodes>
      <leafValues>
        -1.2206062674522400e-01 7.6874482631683350e-01</leafValues></_>
    <_>
      <internalNodes>
        0 -1 103880 -1.0781382443383336e-03</internalNodes>
      <leafValues>
        4.4002646207809448e-01 -2.2867439687252045e-01</leafValues></_>
    <_>
      <internalNodes>
        0 -1 83084 -3.2082200050354004e-02</internalNodes>
      <leafValues>
        5.1741355657577515e-01 -1.8418835103511810e-01</leafValues></_>
    <_>
      <internalNodes>
        0 -1 48075 1.8505156040191650e-02</internalNodes>
      <leafValues>
        -1.8765527009963989e-01 5.2750021219253540e-01</leafValues></_>
    <_>
      <internalNodes>
        0 -1 6343 -1.5954339504241943e-01</internalNodes>
      <leafValues>
        5.2365934848785400e-01 -2.2879484295845032e-01</leafValues></_>
    <_>
      <internalNodes>
        0 -1 105516 -9.8480191081762314e-04</internalNodes>
      <leafValues>
        3.1496345996856689e-01 -2.9454791545867920e-01</leafValues></_></weakClassifiers></stage6>
</opencv_storage>
