<?xml version="1.0"?>
<opencv_storage>
<stage17>
  <maxWeakCount>13</maxWeakCount>
  <stageThreshold>-1.0587435960769653e+00</stageThreshold>
  <weakClassifiers>
    <_>
      <internalNodes>
        0 -1 43157 6.7296251654624939e-02</internalNodes>
      <leafValues>
        -5.1777434349060059e-01 6.6037738323211670e-01</leafValues></_>
    <_>
      <internalNodes>
        0 -1 136365 9.1121010482311249e-03</internalNodes>
      <leafValues>
        -4.3590569496154785e-01 2.9723426699638367e-01</leafValues></_>
    <_>
      <internalNodes>
        0 -1 74109 -4.1440255939960480e-02</internalNodes>
      <leafValues>
        -5.0248062610626221e-01 2.7136904001235962e-01</leafValues></_>
    <_>
      <internalNodes>
        0 -1 105400 8.4588697063736618e-05</internalNodes>
      <leafValues>
        -2.1279877424240112e-01 5.0992131233215332e-01</leafValues></_>
    <_>
      <internalNodes>
        0 -1 162034 2.0142868161201477e-03</internalNodes>
      <leafValues>
        -2.5751718878746033e-01 4.2032951116561890e-01</leafValues></_>
    <_>
      <internalNodes>
        0 -1 32032 1.7662666738033295e-02</internalNodes>
      <leafValues>
        1.0658749938011169e-01 -1.</leafValues></_>
    <_>
      <internalNodes>
        0 -1 122236 2.3080576211214066e-03</internalNodes>
      <leafValues>
        2.5155547261238098e-01 -4.8874559998512268e-01</leafValues></_>
    <_>
      <internalNodes>
        0 -1 87121 2.3782016709446907e-02</internalNodes>
      <leafValues>
        -1.7251574993133545e-01 7.2154104709625244e-01</leafValues></_>
    <_>
      <internalNodes>
        0 -1 147429 6.1729829758405685e-04</internalNodes>
      <leafValues>
        -3.4887415170669556e-01 3.4401783347129822e-01</leafValues></_>
    <_>
      <internalNodes>
        0 -1 31578 -3.7012200802564621e-02</internalNodes>
      <leafValues>
        4.7774916887283325e-01 -2.2826188802719116e-01</leafValues></_>
    <_>
      <internalNodes>
        0 -1 158007 -7.9427463933825493e-03</internalNodes>
      <leafValues>
        6.7586249113082886e-01 -1.7058779299259186e-01</leafValues></_>
    <_>
      <internalNodes>
        0 -1 149094 -3.1562536023557186e-03</internalNodes>
      <leafValues>
        8.4433501958847046e-01 -1.2495623528957367e-01</leafValues></_>
    <_>
      <internalNodes>
        0 -1 85001 -4.6607577241957188e-03</internalNodes>
      <leafValues>
        -6.0513126850128174e-01 1.9120828807353973e-01</leafValues></_></weakClassifiers></stage17>
</opencv_storage>
