<?xml version="1.0"?>
<opencv_storage>
<stage9>
  <maxWeakCount>9</maxWeakCount>
  <stageThreshold>-1.0565465688705444e+00</stageThreshold>
  <weakClassifiers>
    <_>
      <internalNodes>
        0 -1 133608 -1.3044582307338715e-01</internalNodes>
      <leafValues>
        4.6666666865348816e-01 -5.3600001335144043e-01</leafValues></_>
    <_>
      <internalNodes>
        0 -1 10516 -2.3899094760417938e-01</internalNodes>
      <leafValues>
        -9.1270077228546143e-01 8.7088614702224731e-02</leafValues></_>
    <_>
      <internalNodes>
        0 -1 124039 -1.1195583269000053e-02</internalNodes>
      <leafValues>
        -5.1067727804183960e-01 1.9238132238388062e-01</leafValues></_>
    <_>
      <internalNodes>
        0 -1 37801 -3.3498066477477551e-03</internalNodes>
      <leafValues>
        -8.5019749402999878e-01 1.2233698368072510e-01</leafValues></_>
    <_>
      <internalNodes>
        0 -1 116284 2.5428749620914459e-02</internalNodes>
      <leafValues>
        -1.3564519584178925e-01 7.7759778499603271e-01</leafValues></_>
    <_>
      <internalNodes>
        0 -1 153346 3.2827831804752350e-02</internalNodes>
      <leafValues>
        -2.1294766664505005e-01 5.1818656921386719e-01</leafValues></_>
    <_>
      <internalNodes>
        0 -1 44814 4.6838976442813873e-02</internalNodes>
      <leafValues>
        -1.9171324372291565e-01 7.1450436115264893e-01</leafValues></_>
    <_>
      <internalNodes>
        0 -1 99909 2.5562424212694168e-02</internalNodes>
      <leafValues>
        -2.7151614427566528e-01 3.8752782344818115e-01</leafValues></_>
    <_>
      <internalNodes>
        0 -1 88418 2.0266130566596985e-02</internalNodes>
      <leafValues>
        1.3593520224094391e-01 -7.6957523822784424e-01</leafValues></_></weakClassifiers></stage9>
</opencv_storage>
