<?xml version="1.0"?>
<opencv_storage>
<stage7>
  <maxWeakCount>13</maxWeakCount>
  <stageThreshold>-1.3765078783035278e+00</stageThreshold>
  <weakClassifiers>
    <_>
      <internalNodes>
        0 -1 62968 2.3207917809486389e-02</internalNodes>
      <leafValues>
        -5.9074735641479492e-01 2.3188406229019165e-01</leafValues></_>
    <_>
      <internalNodes>
        0 -1 164941 -7.4371178634464741e-03</internalNodes>
      <leafValues>
        4.1469532251358032e-01 -3.3705386519432068e-01</leafValues></_>
    <_>
      <internalNodes>
        0 -1 73878 2.3308034986257553e-02</internalNodes>
      <leafValues>
        1.6329644620418549e-01 -6.5002143383026123e-01</leafValues></_>
    <_>
      <internalNodes>
        0 -1 66691 2.8216323698870838e-04</internalNodes>
      <leafValues>
        -1.9035279750823975e-01 5.0217527151107788e-01</leafValues></_>
    <_>
      <internalNodes>
        0 -1 65900 -4.4404008076526225e-04</internalNodes>
      <leafValues>
        4.9356931447982788e-01 -2.5383958220481873e-01</leafValues></_>
    <_>
      <internalNodes>
        0 -1 30149 -1.8437926471233368e-01</internalNodes>
      <leafValues>
        6.4538568258285522e-01 -1.3686673343181610e-01</leafValues></_>
    <_>
      <internalNodes>
        0 -1 43606 -1.8440445419400930e-03</internalNodes>
      <leafValues>
        4.9559724330902100e-01 -2.1362234652042389e-01</leafValues></_>
    <_>
      <internalNodes>
        0 -1 165225 -3.5979084204882383e-03</internalNodes>
      <leafValues>
        -9.3106335401535034e-01 1.2087855488061905e-01</leafValues></_>
    <_>
      <internalNodes>
        0 -1 150687 -7.5322929769754410e-03</internalNodes>
      <leafValues>
        5.5696511268615723e-01 -2.5192460417747498e-01</leafValues></_>
    <_>
      <internalNodes>
        0 -1 94804 -1.3591535389423370e-03</internalNodes>
      <leafValues>
        4.5796537399291992e-01 -2.1174405515193939e-01</leafValues></_>
    <_>
      <internalNodes>
        0 -1 66830 7.6872911304235458e-03</internalNodes>
      <leafValues>
        1.8252834677696228e-01 -6.1349529027938843e-01</leafValues></_>
    <_>
      <internalNodes>
        0 -1 65060 1.1088820174336433e-03</internalNodes>
      <leafValues>
        -2.4592909216880798e-01 4.9036231637001038e-01</leafValues></_>
    <_>
      <internalNodes>
        0 -1 85331 -4.9292754381895065e-02</internalNodes>
      <leafValues>
        6.6798156499862671e-01 -1.4742222428321838e-01</leafValues></_></weakClassifiers></stage7>
</opencv_storage>
