<?xml version="1.0"?>
<opencv_storage>
<stage18>
  <maxWeakCount>13</maxWeakCount>
  <stageThreshold>-1.0816730260848999e+00</stageThreshold>
  <weakClassifiers>
    <_>
      <internalNodes>
        0 -1 19291 3.3120032399892807e-02</internalNodes>
      <leafValues>
        -2.3146067559719086e-01 -7.7254903316497803e-01</leafValues></_>
    <_>
      <internalNodes>
        0 -1 108362 1.1140393093228340e-02</internalNodes>
      <leafValues>
        4.2741205543279648e-02 -8.3909708261489868e-01</leafValues></_>
    <_>
      <internalNodes>
        0 -1 95462 6.4144246280193329e-03</internalNodes>
      <leafValues>
        1.0241983085870743e-01 -8.7721723318099976e-01</leafValues></_>
    <_>
      <internalNodes>
        0 -1 164570 -1.1377725750207901e-03</internalNodes>
      <leafValues>
        -6.6641223430633545e-01 8.3330132067203522e-02</leafValues></_>
    <_>
      <internalNodes>
        0 -1 95148 9.9490992724895477e-03</internalNodes>
      <leafValues>
        1.2505105137825012e-01 -6.6815030574798584e-01</leafValues></_>
    <_>
      <internalNodes>
        0 -1 138903 -3.8662116276100278e-04</internalNodes>
      <leafValues>
        3.8848799467086792e-01 -2.4536217749118805e-01</leafValues></_>
    <_>
      <internalNodes>
        0 -1 120154 -1.3138782232999802e-02</internalNodes>
      <leafValues>
        -5.3929644823074341e-01 1.6341452300548553e-01</leafValues></_>
    <_>
      <internalNodes>
        0 -1 138252 -1.3654548674821854e-03</internalNodes>
      <leafValues>
        4.3479984998703003e-01 -2.3257985711097717e-01</leafValues></_>
    <_>
      <internalNodes>
        0 -1 93167 -2.8293274343013763e-02</internalNodes>
      <leafValues>
        -8.4420120716094971e-01 1.2142153084278107e-01</leafValues></_>
    <_>
      <internalNodes>
        0 -1 150707 -3.6521634319797158e-04</internalNodes>
      <leafValues>
        3.0818510055541992e-01 -3.0994027853012085e-01</leafValues></_>
    <_>
      <internalNodes>
        0 -1 127965 -8.0322555731981993e-04</internalNodes>
      <leafValues>
        4.2788478732109070e-01 -2.0934042334556580e-01</leafValues></_>
    <_>
      <internalNodes>
        0 -1 151569 -9.0513836767058820e-05</internalNodes>
      <leafValues>
        3.8094168901443481e-01 -2.6631543040275574e-01</leafValues></_>
    <_>
      <internalNodes>
        0 -1 44570 4.0101341903209686e-02</internalNodes>
      <leafValues>
        -1.5619166195392609e-01 6.2820720672607422e-01</leafValues></_></weakClassifiers></stage18>
</opencv_storage>
