<?xml version="1.0"?>
<opencv_storage>
<stage9>
  <maxWeakCount>6</maxWeakCount>
  <stageThreshold>-1.1785919666290283e+00</stageThreshold>
  <weakClassifiers>
    <_>
      <internalNodes>
        0 -1 3470 -1.4458325691521168e-02</internalNodes>
      <leafValues>
        2.0388349890708923e-01 -6.9230771064758301e-01</leafValues></_>
    <_>
      <internalNodes>
        0 -1 8324 7.2345188818871975e-03</internalNodes>
      <leafValues>
        -4.1059160232543945e-01 6.2662857770919800e-01</leafValues></_>
    <_>
      <internalNodes>
        0 -1 19855 -8.0007672309875488e-02</internalNodes>
      <leafValues>
        -8.2039201259613037e-01 2.2157599031925201e-01</leafValues></_>
    <_>
      <internalNodes>
        0 -1 16454 -9.7710460424423218e-02</internalNodes>
      <leafValues>
        -6.3165783882141113e-01 3.1184515357017517e-01</leafValues></_>
    <_>
      <internalNodes>
        0 -1 18778 -7.2430004365742207e-04</internalNodes>
      <leafValues>
        8.6156862974166870e-01 -2.8560599684715271e-01</leafValues></_>
    <_>
      <internalNodes>
        0 -1 21942 -1.7645914107561111e-02</internalNodes>
      <leafValues>
        5.5568027496337891e-01 -3.2350781559944153e-01</leafValues></_></weakClassifiers></stage9>
</opencv_storage>
