<?xml version="1.0"?>
<opencv_storage>
<stage8>
  <maxWeakCount>6</maxWeakCount>
  <stageThreshold>-8.2728099822998047e-01</stageThreshold>
  <weakClassifiers>
    <_>
      <internalNodes>
        0 -1 4672 -3.0353698879480362e-02</internalNodes>
      <leafValues>
        -1. -9.0909093618392944e-02</leafValues></_>
    <_>
      <internalNodes>
        0 -1 15532 -2.6282091857865453e-04</internalNodes>
      <leafValues>
        -7.9706662893295288e-01 1.7404432594776154e-01</leafValues></_>
    <_>
      <internalNodes>
        0 -1 38088 -1.7329883121419698e-04</internalNodes>
      <leafValues>
        -6.6535413265228271e-01 3.4582966566085815e-01</leafValues></_>
    <_>
      <internalNodes>
        0 -1 222 -6.4216624014079571e-03</internalNodes>
      <leafValues>
        -5.5690497159957886e-01 2.7375799417495728e-01</leafValues></_>
    <_>
      <internalNodes>
        0 -1 15667 1.6375940758734941e-03</internalNodes>
      <leafValues>
        2.4251988530158997e-01 -9.0505015850067139e-01</leafValues></_>
    <_>
      <internalNodes>
        0 -1 23664 4.2601563036441803e-02</internalNodes>
      <leafValues>
        -6.2469333410263062e-01 2.0570926368236542e-01</leafValues></_></weakClassifiers></stage8>
</opencv_storage>
