<?xml version="1.0"?>
<opencv_storage>
<stage4>
  <maxWeakCount>7</maxWeakCount>
  <stageThreshold>-1.2347716093063354e+00</stageThreshold>
  <weakClassifiers>
    <_>
      <internalNodes>
        0 -1 20447 -3.1459419988095760e-03</internalNodes>
      <leafValues>
        2.9670330882072449e-01 -6.8339771032333374e-01</leafValues></_>
    <_>
      <internalNodes>
        0 -1 5202 -7.3333396576344967e-03</internalNodes>
      <leafValues>
        3.6816695332527161e-01 -5.1858341693878174e-01</leafValues></_>
    <_>
      <internalNodes>
        0 -1 3385 2.0375499129295349e-01</internalNodes>
      <leafValues>
        1.9857369363307953e-01 -9.7760862112045288e-01</leafValues></_>
    <_>
      <internalNodes>
        0 -1 3881 -9.1798678040504456e-03</internalNodes>
      <leafValues>
        3.3352392911911011e-01 -5.4329508543014526e-01</leafValues></_>
    <_>
      <internalNodes>
        0 -1 20814 1.1459757387638092e-01</internalNodes>
      <leafValues>
        -5.5377751588821411e-01 3.3365193009376526e-01</leafValues></_>
    <_>
      <internalNodes>
        0 -1 11812 -1.5806830488145351e-03</internalNodes>
      <leafValues>
        -9.2328798770904541e-01 1.8735091388225555e-01</leafValues></_>
    <_>
      <internalNodes>
        0 -1 27287 2.4344031512737274e-01</internalNodes>
      <leafValues>
        -3.0174353718757629e-01 6.2605816125869751e-01</leafValues></_></weakClassifiers></stage4>
</opencv_storage>
