<?xml version="1.0"?>
<opencv_storage>
<stage5>
  <maxWeakCount>7</maxWeakCount>
  <stageThreshold>-5.4054278135299683e-01</stageThreshold>
  <weakClassifiers>
    <_>
      <internalNodes>
        0 -1 31731 4.7669816762208939e-02</internalNodes>
      <leafValues>
        -5.7188498973846436e-01 7.8378379344940186e-01</leafValues></_>
    <_>
      <internalNodes>
        0 -1 9293 2.2602805984206498e-04</internalNodes>
      <leafValues>
        -4.6266639232635498e-01 4.7395074367523193e-01</leafValues></_>
    <_>
      <internalNodes>
        0 -1 28361 1.8239421769976616e-02</internalNodes>
      <leafValues>
        -2.5168579816818237e-01 8.3359879255294800e-01</leafValues></_>
    <_>
      <internalNodes>
        0 -1 23346 -5.8293240144848824e-03</internalNodes>
      <leafValues>
        6.7025184631347656e-01 -2.5713747739791870e-01</leafValues></_>
    <_>
      <internalNodes>
        0 -1 22678 -1.1283779749646783e-03</internalNodes>
      <leafValues>
        -7.8244638442993164e-01 2.5914832949638367e-01</leafValues></_>
    <_>
      <internalNodes>
        0 -1 9201 1.2429583072662354e+00</internalNodes>
      <leafValues>
        -3.9419353008270264e-01 5.6010389328002930e-01</leafValues></_>
    <_>
      <internalNodes>
        0 -1 19344 1.2090384215116501e-01</internalNodes>
      <leafValues>
        2.8456604480743408e-01 -7.4380970001220703e-01</leafValues></_></weakClassifiers></stage5>
</opencv_storage>
