<?xml version="1.0"?>
<opencv_storage>
<stage16>
  <maxWeakCount>6</maxWeakCount>
  <stageThreshold>-9.0372866392135620e-01</stageThreshold>
  <weakClassifiers>
    <_>
      <internalNodes>
        0 -1 16075 -1.7711681721266359e-04</internalNodes>
      <leafValues>
        4.0425533056259155e-01 -7.3437500000000000e-01</leafValues></_>
    <_>
      <internalNodes>
        0 -1 16911 4.3786692619323730e-01</internalNodes>
      <leafValues>
        -4.5848229527473450e-01 6.4266663789749146e-01</leafValues></_>
    <_>
      <internalNodes>
        0 -1 33700 -3.8438349962234497e-02</internalNodes>
      <leafValues>
        -5.7100790739059448e-01 5.2734905481338501e-01</leafValues></_>
    <_>
      <internalNodes>
        0 -1 35242 -5.1059073302894831e-04</internalNodes>
      <leafValues>
        -6.9298440217971802e-01 3.0956789851188660e-01</leafValues></_>
    <_>
      <internalNodes>
        0 -1 32457 -2.2689718753099442e-03</internalNodes>
      <leafValues>
        5.9147167205810547e-01 -3.2414805889129639e-01</leafValues></_>
    <_>
      <internalNodes>
        0 -1 30936 -5.7917768135666847e-03</internalNodes>
      <leafValues>
        8.1705152988433838e-01 -2.2364026308059692e-01</leafValues></_></weakClassifiers></stage16>
</opencv_storage>
